{"learner":{"attributes":{"scikit_learn":"{\"_estimator_type\": \"classifier\"}"},"feature_names":[],"feature_types":[],"gradient_booster":{"model":{"gbtree_model_param":{"num_parallel_tree":"1","num_trees":"100"},"iteration_indptr":[0,1,2,3,4,5,6,7,8,9,10,11,12,13,14,15,16,17,18,19,20,21,22,23,24,25,26,27,28,29,30,31,32,33,34,35,36,37,38,39,40,41,42,43,44,45,46,47,48,49,50,51,52,53,54,55,56,57,58,59,60,61,62,63,64,65,66,67,68,69,70,71,72,73,74,75,76,77,78,79,80,81,82,83,84,85,86,87,88,89,90,91,92,93,94,95,96,97,98,99,100],"tree_info":[0,0,0,0,0,0,0,0,0,0,0,0,0,0,0,0,0,0,0,0,0,0,0,0,0,0,0,0,0,0,0,0,0,0,0,0,0,0,0,0,0,0,0,0,0,0,0,0,0,0,0,0,0,0,0,0,0,0,0,0,0,0,0,0,0,0,0,0,0,0,0,0,0,0,0,0,0,0,0,0,0,0,0,0,0,0,0,0,0,0,0,0,0,0,0,0,0,0,0,0],"trees":[{"base_weights":[1.18329126E-7,1.2934375E0,-2.4378914E-1,1.6567328E0,-8.912017E-1,-7.2013974E-1,4.586186E-1,-2.2287406E-3,5.6988496E-1,-4.0059495E-1,-5.3489755E-4,-1.052248E0,-9.96502E-2,-1.723628E-1,1.0637963E0,-3.6053538E-1,3.594656E-1,3.9736876E-1,-1.2945791E0,7.142352E-1,-6.694812E-1,-8.5341156E-1,1.5402281E0,1.2193632E0,-2.5222915E-1,-3.6053538E-1,8.9399165E-1,-1.19919695E-1,-1.3772099E0,1.0449325E0,-4.0217987E-1,-8.777877E-1,3.9782143E-1,-1.2754313E0,-3.8569826E-1,1.6306928E-1,5.1352257E-1,1.6835394E0,7.513231E-1,5.3978216E-2,-2.0049553E-1,4.147681E-1,1.1928702E-1,-3.3382905E-1,1.9940598E-1,-4.7802982E-1,-2.365426E-1,3.0875191E-2,4.6590814E-1,6.6171475E-2,-2.4053521E-1,-3.271454E-1,1.6306928E-1,3.3283848E-1,-1.2053506E-1,-5.511285E-2,-4.3863386E-1,1.1925136E-1,-3.2383186E-1,5.446452E-1,1.6306928E-1,-1.20653965E-1,3.1118047E-1],"categories":[],"categories_nodes":[],"categories_segments":[],"categories_sizes":[],"default_left":[0,0,0,0,0,0,0,0,0,0,0,0,0,0,0,0,0,0,0,0,0,0,0,0,0,0,0,0,0,0,0,0,0,0,0,0,0,0,0,0,0,0,0,0,0,0,0,0,0,0,0,0,0,0,0,0,0,0,0,0,0,0,0],"id":0,"left_children":[1,3,5,7,9,11,13,15,-1,-1,-1,17,19,21,23,-1,-1,25,27,29,31,33,35,37,39,-1,41,43,45,47,49,51,53,55,57,-1,-1,59,61,-1,-1,-1,-1,-1,-1,-1,-1,-1,-1,-1,-1,-1,-1,-1,-1,-1,-1,-1,-1,-1,-1,-1,-1],"loss_changes":[5.3684155E1,2.2905499E1,4.8260513E1,9.47319E0,1.7751338E0,1.7565582E1,2.2521883E1,7.2000055E0,0E0,0E0,0E0,2.009866E1,1.4855228E1,3.572193E1,6.449444E0,0E0,0E0,8.023414E0,4.4938507E0,5.3120794E0,4.517808E0,3.8011675E0,5.6529427E-1,4.600937E0,8.3951044E-1,0E0,1.2084551E0,4.0503464E0,4.4401855E0,4.865803E0,1.1100521E0,5.4298134E0,2.5796263E0,1.9732361E0,6.813316E0,0E0,0E0,9.309387E-1,5.447195E0,0E0,0E0,0E0,0E0,0E0,0E0,0E0,0E0,0E0,0E0,0E0,0E0,0E0,0E0,0E0,0E0,0E0,0E0,0E0,0E0,0E0,0E0,0E0,0E0],"parents":[2147483647,0,0,1,1,2,2,3,3,4,4,5,5,6,6,7,7,11,11,12,12,13,13,14,14,17,17,18,18,19,19,20,20,21,21,22,22,23,23,24,24,26,26,27,27,28,28,29,29,30,30,31,31,32,32,33,33,34,34,37,37,38,38],"right_children":[2,4,6,8,10,12,14,16,-1,-1,-1,18,20,22,24,-1,-1,26,28,30,32,34,36,38,40,-1,42,44,46,48,50,52,54,56,58,-1,-1,60,62,-1,-1,-1,-1,-1,-1,-1,-1,-1,-1,-1,-1,-1,-1,-1,-1,-1,-1,-1,-1,-1,-1,-1,-1],"split_conditions":[-9.622738E-1,8.934619E-1,3.9637882E-1,-5.871188E-2,-1.5121036E0,2.2600532E-1,-4.4585288E-1,-1.1660717E0,5.6988496E-1,-4.0059495E-1,-5.3489755E-4,-1.1899325E0,4.8218727E-1,1.481178E0,1.1631161E0,-3.6053538E-1,3.594656E-1,-1.365656E0,-1.0892768E0,2.1168698E-1,-6.024857E-4,-4.9543673E-1,-1.4180973E0,8.060975E-1,5.173838E-1,-3.6053538E-1,-1.2659565E0,-9.483125E-1,3.4641273E-2,-2.6384142E-1,4.5667046E-1,2.0719366E0,7.413211E-1,4.2397645E-1,-3.410644E-2,1.6306928E-1,5.1352257E-1,8.034319E-1,9.355941E-1,5.3978216E-2,-2.0049553E-1,4.147681E-1,1.1928702E-1,-3.3382905E-1,1.9940598E-1,-4.7802982E-1,-2.365426E-1,3.0875191E-2,4.6590814E-1,6.6171475E-2,-2.4053521E-1,-3.271454E-1,1.6306928E-1,3.3283848E-1,-1.2053506E-1,-5.511285E-2,-4.3863386E-1,1.1925136E-1,-3.2383186E-1,5.446452E-1,1.6306928E-1,-1.20653965E-1,3.1118047E-1],"split_indices":[0,2,0,1,0,2,1,0,0,0,0,1,1,0,1,0,0,1,2,0,0,2,2,0,0,0,2,1,1,0,2,1,2,0,2,0,0,1,0,0,0,0,0,0,0,0,0,0,0,0,0,0,0,0,0,0,0,0,0,0,0,0,0],"split_type":[0,0,0,0,0,0,0,0,0,0,0,0,0,0,0,0,0,0,0,0,0,0,0,0,0,0,0,0,0,0,0,0,0,0,0,0,0,0,0,0,0,0,0,0,0,0,0,0,0,0,0,0,0,0,0,0,0,0,0,0,0,0,0],"sum_hessian":[1.6824963E2,2.5999943E1,1.4224968E2,2.249995E1,3.4999924E0,8.474982E1,5.7499874E1,2.9999933E0,1.9499956E1,1.9999956E0,1.4999967E0,5.4749878E1,2.9999933E1,2.8499937E1,2.8999935E1,1.4999967E0,1.4999967E0,7.749983E0,4.6999897E1,1.2249973E1,1.774996E1,2.0749954E1,7.749983E0,2.5999943E1,2.9999933E0,1.4999967E0,6.249986E0,3.2499928E0,4.3749905E1,9.499979E0,2.749994E0,1.4999967E1,2.749994E0,9.999978E0,1.0749976E1,1.7499962E0,5.9999866E0,1.1749974E1,1.4249969E1,1.7499962E0,1.2499973E0,2.249995E0,3.9999912E0,1.2499973E0,1.9999956E0,3.0749931E1,1.2999971E1,3.7499917E0,5.749987E0,1.2499973E0,1.4999967E0,1.324997E1,1.7499962E0,1.2499973E0,1.4999967E0,1.7499962E0,8.249982E0,5.2499886E0,5.499988E0,9.999978E0,1.7499962E0,2.749994E0,1.1499974E1],"tree_param":{"num_deleted":"0","num_feature":"3","num_nodes":"63","size_leaf_vector":"1"}},{"base_weights":[4.7638174E-3,9.837087E-1,-1.7416912E-1,1.2162157E0,-3.568502E-1,-4.9161136E-1,4.289687E-1,-1.8127953E-3,1.3892798E0,-7.347954E-1,-4.458994E-2,6.9717E-2,1.0948856E0,-3.0198586E-1,3.0127496E-1,4.4445926E-1,3.5512906E-2,9.303507E-2,-9.0676886E-1,5.77207E-1,-4.4230556E-1,-3.1545508E-1,1.0574366E0,3.7525573E-1,-9.2631765E-2,-3.779665E-1,6.735421E-1,-1.1512309E0,-5.6609154E-1,-3.939987E-1,8.889734E-1,-5.917991E-1,3.1716508E-1,-6.144552E-1,5.2581847E-1,4.145455E-1,3.6710975E-1,3.0801302E-2,3.2750788E-1,-8.262278E-2,-3.81914E-1,5.032697E-1,-2.6675758E-1,-3.3902788E-1,1.09902166E-1,3.461638E-1,4.6145786E-3,-9.056979E-2,-4.3546936E-1,-8.230801E-2,-4.2688236E-1,3.98176E-1,-2.3962413E-1,-1.8241869E-1,3.2013676E-1],"categories":[],"categories_nodes":[],"categories_segments":[],"categories_sizes":[],"default_left":[0,0,0,0,0,0,0,0,0,0,0,0,0,0,0,0,0,0,0,0,0,0,0,0,0,0,0,0,0,0,0,0,0,0,0,0,0,0,0,0,0,0,0,0,0,0,0,0,0,0,0,0,0,0,0],"id":1,"left_children":[1,3,5,7,-1,9,11,13,15,17,19,21,23,-1,-1,-1,-1,25,27,29,31,33,35,-1,-1,-1,37,39,41,43,45,47,-1,49,51,-1,53,-1,-1,-1,-1,-1,-1,-1,-1,-1,-1,-1,-1,-1,-1,-1,-1,-1,-1],"loss_changes":[2.8691532E1,1.42363205E1,2.672963E1,4.926689E0,0E0,9.8827305E0,1.1477407E1,4.958311E0,2.2227936E0,8.4853115E0,8.466046E0,1.2674738E1,4.0764484E0,0E0,0E0,0E0,0E0,9.532626E0,3.425228E0,4.4033847E0,5.291916E0,6.3873167E0,1.5821419E0,0E0,0E0,0E0,1.890423E0,2.5869331E0,1.7743956E1,2.622354E0,2.398325E0,4.4394736E0,0E0,4.6270585E0,8.342918E0,0E0,3.6146622E0,0E0,0E0,0E0,0E0,0E0,0E0,0E0,0E0,0E0,0E0,0E0,0E0,0E0,0E0,0E0,0E0,0E0,0E0],"parents":[2147483647,0,0,1,1,2,2,3,3,5,5,6,6,7,7,8,8,9,9,10,10,11,11,12,12,17,17,18,18,19,19,20,20,21,21,22,22,26,26,27,27,28,28,29,29,30,30,31,31,33,33,34,34,36,36],"right_children":[2,4,6,8,-1,10,12,14,16,18,20,22,24,-1,-1,-1,-1,26,28,30,32,34,36,-1,-1,-1,38,40,42,44,46,48,-1,50,52,-1,54,-1,-1,-1,-1,-1,-1,-1,-1,-1,-1,-1,-1,-1,-1,-1,-1,-1,-1],"split_conditions":[-9.622738E-1,1.1633892E0,4.6643436E-1,-5.871188E-2,-3.568502E-1,2.2600532E-1,-7.793164E-2,-1.1660717E0,8.934619E-1,-1.1899325E0,4.8218727E-1,1.481178E0,1.1631161E0,-3.0198586E-1,3.0127496E-1,4.4445926E-1,3.5512906E-2,-1.3629103E0,-2.0227748E-1,3.3397624E-1,1.7228749E0,1.9165093E-1,-1.2503374E0,3.7525573E-1,-9.2631765E-2,-3.779665E-1,-1.0549225E0,-7.797048E-1,-3.0323012E-2,-2.6384142E-1,2.1168698E-1,1.2222824E0,3.1716508E-1,-3.410644E-2,3.7323838E-1,4.145455E-1,2.08408E0,3.0801302E-2,3.2750788E-1,-8.262278E-2,-3.81914E-1,5.032697E-1,-2.6675758E-1,-3.3902788E-1,1.09902166E-1,3.461638E-1,4.6145786E-3,-9.056979E-2,-4.3546936E-1,-8.230801E-2,-4.2688236E-1,3.98176E-1,-2.3962413E-1,-1.8241869E-1,3.2013676E-1],"split_indices":[0,2,0,1,0,2,1,0,2,1,1,0,1,0,0,0,0,1,0,2,2,2,1,0,0,0,2,0,0,0,0,2,0,2,2,0,0,0,0,0,0,0,0,0,0,0,0,0,0,0,0,0,0,0,0],"split_type":[0,0,0,0,0,0,0,0,0,0,0,0,0,0,0,0,0,0,0,0,0,0,0,0,0,0,0,0,0,0,0,0,0,0,0,0,0,0,0,0,0,0,0,0,0,0,0,0,0,0,0,0,0,0,0],"sum_hessian":[1.6181862E2,2.4311638E1,1.3750697E2,2.2359772E1,1.9518647E0,9.02118E1,4.7295177E1,2.9048576E0,1.9454914E1,5.801002E1,3.220178E1,3.1439014E1,1.5856161E1,1.4530591E0,1.4517984E0,1.7983797E1,1.4711183E0,1.0057095E1,4.7952927E1,1.2385976E1,1.9815802E1,2.3108303E1,8.330713E0,1.4368477E1,1.4876839E0,2.6682277E0,7.388867E0,2.6533716E1,2.141921E1,2.9457374E0,9.440239E0,1.856984E1,1.2459618E0,1.7247808E1,5.8604946E0,4.9860854E0,3.3446276E0,3.6505587E0,3.738308E0,3.6380439E0,2.2895672E1,2.1685295E0,1.925068E1,1.2496421E0,1.6960952E0,6.997491E0,2.442748E0,1.4897702E1,3.6721375E0,1.3083495E1,4.1643124E0,3.6500092E0,2.2104852E0,1.452516E0,1.8921117E0],"tree_param":{"num_deleted":"0","num_feature":"3","num_nodes":"55","size_leaf_vector":"1"}},{"base_weights":[7.7776094E-3,8.15931E-1,-1.2932889E-1,1.0277209E0,-3.0229336E-1,-4.1169274E-1,2.859016E-1,-1.5178877E-3,1.1845775E0,-5.9300655E-1,1.28264725E-2,-1.21132605E-1,6.81323E-1,-2.6129082E-1,2.6077318E-1,3.749373E-2,3.9116645E-1,6.4698887E-1,-7.041529E-1,6.394143E-1,-3.4455234E-1,-5.472628E-1,1.0427698E0,9.847876E-1,-1.6660666E-2,2.4953099E-2,8.3503413E-1,-7.422604E-1,1.4521287E-1,9.093698E-1,-6.938315E-2,-9.397305E-1,8.786111E-3,-9.2608285E-1,-1.4872038E-1,9.080304E-2,3.5879374E-1,1.0497359E0,8.374963E-2,-2.4892148E-1,3.1348476E-1,3.4222832E-1,3.511894E-2,-2.8393668E-1,-1.4615965E-1,3.3219048E-1,2.9439628E-2,-5.2083857E-2,-3.7707016E-1,3.8132396E-1,-9.359173E-2,-5.337383E-2,-3.1608486E-1,1.1444571E-1,-2.0314826E-1,3.7075505E-1,1.7644979E-1,2.767944E-1,-1.2841491E-1],"categories":[],"categories_nodes":[],"categories_segments":[],"categories_sizes":[],"default_left":[0,0,0,0,0,0,0,0,0,0,0,0,0,0,0,0,0,0,0,0,0,0,0,0,0,0,0,0,0,0,0,0,0,0,0,0,0,0,0,0,0,0,0,0,0,0,0,0,0,0,0,0,0,0,0,0,0,0,0],"id":2,"left_children":[1,3,5,7,-1,9,11,13,15,17,19,21,23,-1,-1,-1,-1,25,27,29,31,33,35,37,39,-1,41,43,-1,45,-1,47,49,51,53,-1,-1,55,-1,-1,57,-1,-1,-1,-1,-1,-1,-1,-1,-1,-1,-1,-1,-1,-1,-1,-1,-1,-1],"loss_changes":[1.6957756E1,9.608454E0,1.5464578E1,3.292408E0,0E0,6.0361805E0,8.704961E0,3.5539312E0,2.0732193E0,8.022402E0,5.6884837E0,1.4084696E1,5.8041286E0,0E0,0E0,0E0,0E0,4.646368E-1,2.662447E0,2.3772876E0,3.41509E0,2.9725146E0,5.050373E-1,5.805054E-1,2.7467287E0,0E0,6.713753E-1,2.1263275E0,0E0,1.0538816E0,0E0,1.2504168E0,4.913477E0,8.0206585E-1,3.4049E0,0E0,0E0,7.4142647E-1,0E0,0E0,3.6988223E0,0E0,0E0,0E0,0E0,0E0,0E0,0E0,0E0,0E0,0E0,0E0,0E0,0E0,0E0,0E0,0E0,0E0,0E0],"parents":[2147483647,0,0,1,1,2,2,3,3,5,5,6,6,7,7,8,8,9,9,10,10,11,11,12,12,17,17,18,18,19,19,20,20,21,21,22,22,23,23,24,24,26,26,27,27,29,29,31,31,32,32,33,33,34,34,37,37,40,40],"right_children":[2,4,6,8,-1,10,12,14,16,18,20,22,24,-1,-1,-1,-1,26,28,30,32,34,36,38,40,-1,42,44,-1,46,-1,48,50,52,54,-1,-1,56,-1,-1,58,-1,-1,-1,-1,-1,-1,-1,-1,-1,-1,-1,-1,-1,-1,-1,-1,-1,-1],"split_conditions":[-9.622738E-1,1.1633892E0,3.9637882E-1,-5.871188E-2,-3.0229336E-1,3.6833063E-1,-4.4585288E-1,-1.1660717E0,-2.089531E0,-1.2659565E0,4.8218727E-1,1.481178E0,1.0926883E0,-2.6129082E-1,2.6077318E-1,3.749373E-2,3.9116645E-1,-1.3464363E0,9.928839E-1,2.1168698E-1,7.020589E-1,-4.9543673E-1,-1.4180973E0,1.1631161E0,-2.9209477E-1,2.4953099E-2,-4.7825378E-1,-2.0227748E-1,1.4521287E-1,7.069667E-1,-6.938315E-2,5.4010254E-1,8.051221E-1,4.2397645E-1,-3.410644E-2,9.080304E-2,3.5879374E-1,8.060975E-1,8.374963E-2,-2.4892148E-1,8.934619E-1,3.4222832E-1,3.511894E-2,-2.8393668E-1,-1.4615965E-1,3.3219048E-1,2.9439628E-2,-5.2083857E-2,-3.7707016E-1,3.8132396E-1,-9.359173E-2,-5.337383E-2,-3.1608486E-1,1.1444571E-1,-2.0314826E-1,3.7075505E-1,1.7644979E-1,2.767944E-1,-1.2841491E-1],"split_indices":[0,2,0,1,0,2,1,0,0,2,1,0,0,0,0,0,0,1,1,0,2,2,2,1,1,0,0,0,0,2,0,2,2,0,2,0,0,0,0,0,2,0,0,0,0,0,0,0,0,0,0,0,0,0,0,0,0,0,0],"split_type":[0,0,0,0,0,0,0,0,0,0,0,0,0,0,0,0,0,0,0,0,0,0,0,0,0,0,0,0,0,0,0,0,0,0,0,0,0,0,0,0,0,0,0,0,0,0,0,0,0,0,0,0,0,0,0,0,0,0,0],"sum_hessian":[1.5109174E2,2.1197172E1,1.2989458E2,1.9382513E1,1.8146578E0,7.732249E1,5.2572086E1,2.6942298E0,1.6688284E1,5.3903286E1,2.3419197E1,2.6247454E1,2.6324633E1,1.3480101E0,1.3462198E0,1.8961427E0,1.4792141E1,4.0375547E0,4.9865734E1,8.219272E0,1.5199926E1,1.9600927E1,6.6465254E0,1.8061203E1,8.26343E0,1.3705602E0,2.6669946E0,4.867979E1,1.1859424E0,6.2401175E0,1.9791536E0,5.0440083E0,1.0155917E1,9.3704815E0,1.0230447E1,1.650276E0,4.9962497E0,1.6092327E1,1.9688771E0,1.949349E0,6.3140807E0,1.4574955E0,1.2094992E0,2.5530273E1,2.3149517E1,4.722849E0,1.5172688E0,1.9298574E0,3.114151E0,1.4574856E0,8.698432E0,1.7134739E0,7.6570077E0,5.2455063E0,4.9849405E0,1.0272682E1,5.819644E0,3.3323483E0,2.9817326E0],"tree_param":{"num_deleted":"0","num_feature":"3","num_nodes":"59","size_leaf_vector":"1"}},{"base_weights":[1.5547966E-2,6.987219E-1,-9.0411015E-2,9.832643E-1,-5.859008E-1,-2.8799137E-1,2.9550916E-1,-1.2930491E-3,3.483785E-1,-2.844511E-1,1.9895248E-2,-3.2586193E-1,2.9509798E-1,-1.2725176E-2,7.23066E-1,-2.3068997E-1,2.3028795E-1,-2.657257E-1,-3.816068E-1,2.5754714E-1,-3.1660593E-1,8.2181376E-1,-6.697844E-2,-3.4660804E-1,1.1076045E0,-1.8343186E-1,9.791837E-1,1.123991E0,5.680525E-1,-1.7247781E-1,-3.8222324E-2,4.3061805E-1,1.06939204E-1,1.7365518E-1,-3.1419152E-1,1.0370943E-1,3.7993085E-1,1.0910849E-1,3.7219095E-1,4.9770605E-2,3.406137E-1],"categories":[],"categories_nodes":[],"categories_segments":[],"categories_sizes":[],"default_left":[0,0,0,0,0,0,0,0,0,0,0,0,0,0,0,0,0,0,0,0,0,0,0,0,0,0,0,0,0,0,0,0,0,0,0,0,0,0,0,0,0],"id":3,"left_children":[1,3,5,7,9,11,13,15,-1,-1,-1,17,-1,19,21,-1,-1,23,-1,25,-1,27,-1,29,31,33,35,37,39,-1,-1,-1,-1,-1,-1,-1,-1,-1,-1,-1,-1],"loss_changes":[1.026467E1,7.534774E0,9.455495E0,2.798212E0,1.026593E0,4.2591195E0,5.5582E0,2.622185E0,0E0,0E0,0E0,4.223568E0,0E0,7.4433374E0,1.8333912E0,0E0,0E0,8.897322E0,0E0,6.8669586E0,0E0,6.0384655E-1,0E0,3.587328E0,5.966015E-1,9.750304E0,1.0413456E0,1.14011765E-1,2.2820365E0,0E0,0E0,0E0,0E0,0E0,0E0,0E0,0E0,0E0,0E0,0E0,0E0],"parents":[2147483647,0,0,1,1,2,2,3,3,4,4,5,5,6,6,7,7,11,11,13,13,14,14,17,17,19,19,21,21,23,23,24,24,25,25,26,26,27,27,28,28],"right_children":[2,4,6,8,10,12,14,16,-1,-1,-1,18,-1,20,22,-1,-1,24,-1,26,-1,28,-1,30,32,34,36,38,40,-1,-1,-1,-1,-1,-1,-1,-1,-1,-1,-1,-1],"split_conditions":[-9.622738E-1,8.934619E-1,4.6643436E-1,-5.871188E-2,-1.5121036E0,1.7228749E0,1.9165093E-1,-1.1660717E0,3.483785E-1,-2.844511E-1,1.9895248E-2,1.2222824E0,2.9509798E-1,-2.4290904E-2,1.1631161E0,-2.3068997E-1,2.3028795E-1,1.0652338E0,-3.816068E-1,-9.0438163E-1,-3.1660593E-1,4.7139376E-1,-6.697844E-2,-2.0227748E-1,-2.341209E-1,-1.2201349E0,-3.6783475E-1,7.7000827E-1,1.3106223E0,-1.7247781E-1,-3.8222324E-2,4.3061805E-1,1.06939204E-1,1.7365518E-1,-3.1419152E-1,1.0370943E-1,3.7993085E-1,1.0910849E-1,3.7219095E-1,4.9770605E-2,3.406137E-1],"split_indices":[0,2,0,1,0,2,2,0,0,0,0,2,0,2,1,0,0,2,0,1,0,2,0,0,0,1,2,0,2,0,0,0,0,0,0,0,0,0,0,0,0],"split_type":[0,0,0,0,0,0,0,0,0,0,0,0,0,0,0,0,0,0,0,0,0,0,0,0,0,0,0,0,0,0,0,0,0,0,0,0,0,0,0,0,0],"sum_hessian":[1.3992723E2,1.8037245E1,1.21889984E2,1.4958536E1,3.0787096E0,8.0784386E1,4.11056E1,2.4422798E0,1.2516256E1,1.6875892E0,1.3911203E0,7.9170395E1,1.6139936E0,2.4449614E1,1.6655983E1,1.2220994E0,1.2201803E0,7.564348E1,3.5269127E0,2.0014416E1,4.435199E0,1.52013235E1,1.4546593E0,7.214227E1,3.5012074E0,1.2885892E1,7.1285233E0,5.373396E0,9.827928E0,3.4541344E1,3.760093E1,1.8033117E0,1.6978956E0,7.0207295E0,5.865163E0,2.9113994E0,4.217124E0,1.2624813E0,4.110914E0,6.507501E0,3.3204267E0],"tree_param":{"num_deleted":"0","num_feature":"3","num_nodes":"41","size_leaf_vector":"1"}},{"base_weights":[2.3130631E-2,6.105999E-1,-5.753886E-2,8.93862E-1,-5.0340056E-1,-1.1433382E-1,9.132711E-1,-1.1128963E-3,3.2166043E-1,-2.505832E-1,1.6413562E-2,-3.0601355E-1,1.9157584E-1,9.6350364E-2,3.1386274E-1,-2.063801E-1,2.0605354E-1,-8.3514416E-1,-1.8742207E-1,5.1117265E-1,-1.2960652E-1,1.3594645E-1,-3.5319978E-1,1.2437965E0,-3.122769E-1,3.2975838E-1,3.5986882E-1,-3.586615E-1,2.1918464E-1,-2.5676733E-1,3.3292812E-1,4.96433E-1,2.7644867E-2,3.278514E-2,-1.2949896E-1,1.387075E-1,-2.2632213E-1,-3.180099E-1,3.6175072E-2,3.2174718E-1,-7.5987585E-2],"categories":[],"categories_nodes":[],"categories_segments":[],"categories_sizes":[],"default_left":[0,0,0,0,0,0,0,0,0,0,0,0,0,0,0,0,0,0,0,0,0,0,0,0,0,0,0,0,0,0,0,0,0,0,0,0,0,0,0,0,0],"id":4,"left_children":[1,3,5,7,9,11,13,15,-1,-1,-1,17,19,-1,-1,-1,-1,21,23,25,27,29,-1,31,33,35,-1,37,39,-1,-1,-1,-1,-1,-1,-1,-1,-1,-1,-1,-1],"loss_changes":[6.3107414E0,5.522338E0,6.574642E0,2.1042109E0,7.677873E-1,6.611326E0,1.8326044E-1,1.9789698E0,0E0,0E0,0E0,4.1787486E0,4.548239E0,0E0,0E0,0E0,0E0,4.2671986E0,1.0704032E1,2.3628597E0,1.8822124E0,4.9262834E0,0E0,2.1347947E0,2.7596369E0,3.0601528E0,0E0,4.8356204E0,4.129735E0,0E0,0E0,0E0,0E0,0E0,0E0,0E0,0E0,0E0,0E0,0E0,0E0],"parents":[2147483647,0,0,1,1,2,2,3,3,4,4,5,5,6,6,7,7,11,11,12,12,17,17,18,18,19,19,20,20,21,21,23,23,24,24,25,25,27,27,28,28],"right_children":[2,4,6,8,10,12,14,16,-1,-1,-1,18,20,-1,-1,-1,-1,22,24,26,28,30,-1,32,34,36,-1,38,40,-1,-1,-1,-1,-1,-1,-1,-1,-1,-1,-1,-1],"split_conditions":[-9.622738E-1,8.934619E-1,1.6701156E0,-5.871188E-2,-1.5121036E0,2.2600532E-1,2.08408E0,-1.1660717E0,3.2166043E-1,-2.505832E-1,1.6413562E-2,-5.907672E-1,4.9317E-1,9.6350364E-2,3.1386274E-1,-2.063801E-1,2.0605354E-1,-7.797048E-1,-4.7825378E-1,3.9981684E-1,-6.024857E-4,-8.200398E-1,-3.5319978E-1,-5.886843E-1,-1.1899325E0,3.064637E-1,3.5986882E-1,1.1054568E0,7.413211E-1,-2.5676733E-1,3.3292812E-1,4.96433E-1,2.7644867E-2,3.278514E-2,-1.2949896E-1,1.387075E-1,-2.2632213E-1,-3.180099E-1,3.6175072E-2,3.2174718E-1,-7.5987585E-2],"split_indices":[0,2,0,1,0,2,0,0,0,0,0,0,1,0,0,0,0,0,0,1,0,0,0,2,1,1,0,1,2,0,0,0,0,0,0,0,0,0,0,0,0],"split_type":[0,0,0,0,0,0,0,0,0,0,0,0,0,0,0,0,0,0,0,0,0,0,0,0,0,0,0,0,0,0,0,0,0,0,0,0,0,0,0,0,0],"sum_hessian":[1.3142236E2,1.5074481E1,1.16347885E2,1.2176035E1,2.8984463E0,1.1075089E2,5.596993E0,2.188262E0,9.987772E0,1.5061915E0,1.3922548E0,6.808759E1,4.2663303E1,1.652539E0,3.944454E0,1.0950539E0,1.0932082E0,1.1359898E1,5.6727695E1,2.1087934E1,2.1575369E1,3.1169817E0,8.242915E0,3.8325853E0,5.289511E1,1.7860191E1,3.2277427E0,1.3005932E1,8.569437E0,1.6041924E0,1.5127895E0,2.5026164E0,1.3299692E0,1.1692556E1,4.1202553E1,1.6424868E1,1.4353247E0,4.787533E0,8.218398E0,2.601365E0,5.968072E0],"tree_param":{"num_deleted":"0","num_feature":"3","num_nodes":"41","size_leaf_vector":"1"}},{"base_weights":[2.5199277E-2,-1.1786306E-1,2.577043E-1,-2.5386074E-1,3.8435087E-1,7.7861804E-1,3.89715E-2,2.6141533E-1,-4.3710926E-1,2.7736098E-1,1.352494E-1,4.299316E-1,3.9486656E-1,4.3046236E-1,-1.5506577E-1,-2.8858966E-1,7.600506E-1,-2.9448578E-1,-1.0208428E0,2.826822E-1,-1.8756899E-1,-6.6563316E-2,3.1776515E-1,6.346664E-1,-1.3171059E-1,-5.3808576E-1,3.5602817E-1,5.892209E-1,-3.4936854E-1,1.354478E-1,1.1685977E0,-6.885125E-1,1.4892057E-1,-9.4010286E-2,-3.3149073E-1,-1.14385284E-1,7.048564E-1,3.0477545E-1,-7.188943E-1,8.431088E-1,3.7097313E-2,-4.217938E-3,-8.621622E-1,3.108982E-1,-1.04781576E-1,-8.406127E-3,3.067696E-1,2.63657E-1,-1.6301703E-1,4.5008233E-1,3.0873674E-3,5.229057E-2,-2.5460213E-1,3.8309613E-1,-1.07907355E-1,1.5289225E-1,-3.6361593E-1,2.9438958E-1,5.6544017E-2,-2.688596E-1,-8.906947E-2,1.9084583E-3,3.1192648E-1,-2.2612755E-1,2.4211378E-1,-3.001889E-1,3.4363705E-1,-3.3163905E-1,9.353717E-2,-3.0195934E-1,1.6093959E-1],"categories":[],"categories_nodes":[],"categories_segments":[],"categories_sizes":[],"default_left":[0,0,0,0,0,0,0,0,0,0,0,0,0,0,0,0,0,0,0,0,0,0,0,0,0,0,0,0,0,0,0,0,0,0,0,0,0,0,0,0,0,0,0,0,0,0,0,0,0,0,0,0,0,0,0,0,0,0,0,0,0,0,0,0,0,0,0,0,0,0,0],"id":5,"left_children":[1,3,5,7,9,11,13,15,17,-1,19,-1,21,23,25,27,29,31,33,35,-1,37,-1,39,-1,41,43,45,-1,47,49,51,53,-1,-1,55,57,-1,59,61,63,65,67,-1,69,-1,-1,-1,-1,-1,-1,-1,-1,-1,-1,-1,-1,-1,-1,-1,-1,-1,-1,-1,-1,-1,-1,-1,-1,-1,-1],"loss_changes":[4.168262E0,5.4044385E0,5.404724E0,5.9444103E0,2.156424E0,2.9638424E0,2.6986754E0,4.833251E0,3.5224848E0,0E0,1.6090951E0,0E0,3.2094383E0,2.3642852E0,4.870339E0,7.394806E0,2.1636167E0,6.7957525E0,1.6626263E-1,1.9898405E0,0E0,5.661609E0,0E0,1.2045138E0,0E0,2.4289875E0,3.5069098E0,1.3718541E0,0E0,2.8641856E0,2.0475698E0,2.9755726E0,1.1273031E1,0E0,0E0,5.2272882E0,6.229675E-1,0E0,1.0377288E-1,1.1961241E0,2.8075984E0,8.381453E0,2.8422537E0,0E0,4.802149E0,0E0,0E0,0E0,0E0,0E0,0E0,0E0,0E0,0E0,0E0,0E0,0E0,0E0,0E0,0E0,0E0,0E0,0E0,0E0,0E0,0E0,0E0,0E0,0E0,0E0,0E0],"parents":[2147483647,0,0,1,1,2,2,3,3,4,4,5,5,6,6,7,7,8,8,10,10,12,12,13,13,14,14,15,15,16,16,17,17,18,18,19,19,21,21,23,23,25,25,26,26,27,27,29,29,30,30,31,31,32,32,35,35,36,36,38,38,39,39,40,40,41,41,42,42,44,44],"right_children":[2,4,6,8,10,12,14,16,18,-1,20,-1,22,24,26,28,30,32,34,36,-1,38,-1,40,-1,42,44,46,-1,48,50,52,54,-1,-1,56,58,-1,60,62,64,66,68,-1,70,-1,-1,-1,-1,-1,-1,-1,-1,-1,-1,-1,-1,-1,-1,-1,-1,-1,-1,-1,-1,-1,-1,-1,-1,-1,-1],"split_conditions":[1.6368827E-1,1.6711208E-1,4.9317E-1,-1.1899325E0,-4.2114177E-1,-4.218202E-1,-7.733362E-1,-9.813059E-1,-2.4290904E-2,2.7736098E-1,1.137269E0,4.299316E-1,4.3001932E-1,1.1633892E0,-6.024857E-4,-1.2659565E0,-1.3409449E0,-5.474431E-1,-6.6825306E-1,3.4967515E-1,-1.8756899E-1,2.5155008E-1,3.1776515E-1,-8.6249775E-1,-1.3171059E-1,-4.9311405E-1,7.413211E-1,-1.3629103E0,-3.4936854E-1,-1.5001943E0,-1.2393547E0,-1.0892768E0,-4.2114177E-1,-9.4010286E-2,-3.3149073E-1,-1.5462749E-2,8.6978436E-1,3.0477545E-1,-2.6384142E-1,-2.089531E0,-8.0305666E-1,-6.841746E-1,1.964855E0,3.108982E-1,1.124127E0,-8.406127E-3,3.067696E-1,2.63657E-1,-1.6301703E-1,4.5008233E-1,3.0873674E-3,5.229057E-2,-2.5460213E-1,3.8309613E-1,-1.07907355E-1,1.5289225E-1,-3.6361593E-1,2.9438958E-1,5.6544017E-2,-2.688596E-1,-8.906947E-2,1.9084583E-3,3.1192648E-1,-2.2612755E-1,2.4211378E-1,-3.001889E-1,3.4363705E-1,-3.3163905E-1,9.353717E-2,-3.0195934E-1,1.6093959E-1],"split_indices":[1,2,1,1,1,2,0,2,2,0,0,0,1,2,0,2,1,1,1,0,0,1,0,0,0,0,2,1,0,1,1,2,1,0,0,0,0,0,0,0,0,0,1,0,2,0,0,0,0,0,0,0,0,0,0,0,0,0,0,0,0,0,0,0,0,0,0,0,0,0,0],"split_type":[0,0,0,0,0,0,0,0,0,0,0,0,0,0,0,0,0,0,0,0,0,0,0,0,0,0,0,0,0,0,0,0,0,0,0,0,0,0,0,0,0,0,0,0,0,0,0,0,0,0,0,0,0,0,0,0,0,0,0,0,0,0,0,0,0,0,0,0,0,0,0],"sum_hessian":[1.23400215E2,7.6699455E1,4.670076E1,6.0744564E1,1.5954887E1,1.3053671E1,3.364709E1,1.5823617E1,4.4920948E1,4.1796584E0,1.17752285E1,3.8141627E0,9.239508E0,1.0746477E1,2.2900614E1,7.7245355E0,8.099082E0,3.730959E1,7.611359E0,1.0389348E1,1.3858806E0,5.983457E0,3.2560506E0,8.92135E0,1.8251276E0,1.3060274E1,9.84034E0,4.0217233E0,3.702812E0,3.7292275E0,4.369854E0,1.9462095E1,1.7847494E1,1.3110249E0,6.300334E0,5.729571E0,4.6597767E0,2.0403402E0,3.9431171E0,6.3095665E0,2.6117828E0,5.3159876E0,7.7442865E0,3.4694378E0,6.3709016E0,2.044684E0,1.9770393E0,1.6393234E0,2.089904E0,3.1675942E0,1.2022599E0,3.033243E0,1.6428852E1,5.0767884E0,1.2770705E1,3.9944339E0,1.7351371E0,2.4485762E0,2.2112007E0,1.9852772E0,1.95784E0,1.3971056E0,4.912461E0,1.2987716E0,1.313011E0,2.9172645E0,2.3987231E0,6.463143E0,1.2811437E0,2.4109173E0,3.9599843E0],"tree_param":{"num_deleted":"0","num_feature":"3","num_nodes":"71","size_leaf_vector":"1"}},{"base_weights":[2.9237237E-2,-1.07671805E-2,8.1259835E-1,-8.281617E-1,3.0952908E-2,2.8086948E-1,8.526078E-2,-3.113758E-1,-7.37261E-3,5.914171E-1,-2.430363E-2,4.115558E-2,8.5936725E-1,-7.7246803E-1,6.0459733E-2,2.681084E-1,-2.8706706E-1,1.0564362E0,2.582715E-3,-3.2474574E-1,-2.0602685E-1,1.2046174E-1,-4.437502E-1,3.5353023E-1,1.04627825E-1,1.4419715E-1,-2.6331738E-1,1.8959428E-1,1.1194026E-2,-3.4979266E-1,1.9075121E-1],"categories":[],"categories_nodes":[],"categories_segments":[],"categories_sizes":[],"default_left":[0,0,0,0,0,0,0,0,0,0,0,0,0,0,0,0,0,0,0,0,0,0,0,0,0,0,0,0,0,0,0],"id":6,"left_children":[1,3,5,7,9,-1,-1,-1,-1,11,13,15,17,19,21,-1,-1,23,-1,-1,25,27,29,-1,-1,-1,-1,-1,-1,-1,-1],"loss_changes":[3.5960686E0,3.7733283E0,9.811258E-2,8.801286E-1,3.2823946E0,0E0,0E0,0E0,0E0,1.366745E0,6.1990957E0,4.3986373E0,1.0547009E0,1.5234532E0,2.717878E0,0E0,0E0,3.307247E-2,0E0,0E0,2.6141343E0,3.3572922E0,8.210484E0,0E0,0E0,0E0,0E0,0E0,0E0,0E0,0E0],"parents":[2147483647,0,0,1,1,2,2,3,3,4,4,9,9,10,10,11,11,12,12,13,13,14,14,17,17,20,20,21,21,22,22],"right_children":[2,4,6,8,10,-1,-1,-1,-1,12,14,16,18,20,22,-1,-1,24,-1,-1,26,28,30,-1,-1,-1,-1,-1,-1,-1,-1],"split_conditions":[1.6701156E0,-1.3629103E0,-5.858826E-1,-9.0768933E-1,-1.1899325E0,2.8086948E-1,8.526078E-2,-3.113758E-1,-7.37261E-3,-1.0549225E0,-8.9889026E-1,-1.2659565E0,-1.2393547E0,-4.9543673E-1,1.232098E0,2.681084E-1,-2.8706706E-1,7.14813E-1,2.582715E-3,-3.2474574E-1,-1.0279373E0,-9.622738E-1,1.7228749E0,3.5353023E-1,1.04627825E-1,1.4419715E-1,-2.6331738E-1,1.8959428E-1,1.1194026E-2,-3.4979266E-1,1.9075121E-1],"split_indices":[0,1,1,2,1,0,0,0,0,2,1,2,1,2,2,0,0,0,0,0,1,0,2,0,0,0,0,0,0,0,0],"split_type":[0,0,0,0,0,0,0,0,0,0,0,0,0,0,0,0,0,0,0,0,0,0,0,0,0,0,0,0,0,0,0],"sum_hessian":[1.1347223E2,1.08897354E2,4.5748777E0,4.3728337E0,1.0452451E2,3.0819335E0,1.492944E0,3.23643E0,1.1364037E0,8.509544E0,9.601498E1,3.164511E0,5.345033E0,8.94537E0,8.70696E1,1.7630522E0,1.4014587E0,4.1434817E0,1.2015513E0,5.192464E0,3.7529063E0,7.84902E1,8.579404E0,2.9668121E0,1.1766698E0,1.9963896E0,1.7565168E0,1.0051828E1,6.843837E1,5.0925546E0,3.4868495E0],"tree_param":{"num_deleted":"0","num_feature":"3","num_nodes":"31","size_leaf_vector":"1"}},{"base_weights":[2.1123054E-2,-7.248784E-3,2.5883E-1,-1.4053926E-1,2.0882058E-1,-2.467389E-1,2.5262216E-1,6.7832565E-1,1.1776524E-2,-1.4030349E-1,-8.4683734E-1,2.7308992E-1,9.275917E-2,3.7873805E-1,3.4555233E-1,9.565758E-2,-5.562526E-1,-2.1857402E-1,2.8500953E-1,2.8566318E-2,-3.0029395E-1,4.622873E-1,-1.18371114E-1,-3.9866984E-2,2.7955645E-1,-3.6461655E-2,7.451225E-1,-4.962664E-2,-2.5428843E-1,2.5783372E-1,-8.393897E-2,-7.219634E-2,2.674721E-1,-3.0707127E-1,6.650966E-2,2.6786116E-1,-1.7481305E-1,9.656318E-2,-1.2296647E-1,2.990935E-1,-6.923348E-3],"categories":[],"categories_nodes":[],"categories_segments":[],"categories_sizes":[],"default_left":[0,0,0,0,0,0,0,0,0,0,0,0,0,0,0,0,0,0,0,0,0,0,0,0,0,0,0,0,0,0,0,0,0,0,0,0,0,0,0,0,0],"id":7,"left_children":[1,3,-1,5,7,9,11,13,15,17,19,-1,21,-1,23,25,27,29,-1,-1,-1,31,33,35,-1,37,39,-1,-1,-1,-1,-1,-1,-1,-1,-1,-1,-1,-1,-1,-1],"loss_changes":[2.6354275E0,3.1254964E0,0E0,2.8634431E0,3.8237681E0,3.2871583E0,1.4675611E0,1.9403749E0,1.4917692E0,4.175215E0,1.2329803E0,0E0,1.0680647E0,0E0,2.1083975E0,2.3577294E0,3.1888926E-1,3.156955E0,0E0,0E0,0E0,1.701208E0,3.016476E0,3.8060505E0,0E0,3.2795804E0,9.203253E-1,0E0,0E0,0E0,0E0,0E0,0E0,0E0,0E0,0E0,0E0,0E0,0E0,0E0,0E0],"parents":[2147483647,0,0,1,1,3,3,4,4,5,5,6,6,7,7,8,8,9,9,10,10,12,12,14,14,15,15,16,16,17,17,21,21,22,22,23,23,25,25,26,26],"right_children":[2,4,-1,6,8,10,12,14,16,18,20,-1,22,-1,24,26,28,30,-1,-1,-1,32,34,36,-1,38,40,-1,-1,-1,-1,-1,-1,-1,-1,-1,-1,-1,-1,-1,-1],"split_conditions":[2.08408E0,1.6368827E-1,2.5883E-1,1.6711208E-1,4.9317E-1,-2.4290904E-2,-6.188308E-1,-4.218202E-1,2.3327763E0,-6.355306E-2,-7.5611484E-1,2.7308992E-1,5.2469883E-2,3.7873805E-1,4.3001932E-1,4.5369697E-1,-7.797048E-1,-2.1395395E0,2.8500953E-1,2.8566318E-2,-3.0029395E-1,-2.341209E-1,3.4967515E-1,2.5155008E-1,2.7955645E-1,-4.9311405E-1,9.8442066E-1,-4.962664E-2,-2.5428843E-1,2.5783372E-1,-8.393897E-2,-7.219634E-2,2.674721E-1,-3.0707127E-1,6.650966E-2,2.6786116E-1,-1.7481305E-1,9.656318E-2,-1.2296647E-1,2.990935E-1,-6.923348E-3],"split_indices":[0,1,0,2,1,2,1,2,1,2,1,0,0,0,1,0,0,2,0,0,0,0,0,1,0,0,0,0,0,0,0,0,0,0,0,0,0,0,0,0,0],"split_type":[0,0,0,0,0,0,0,0,0,0,0,0,0,0,0,0,0,0,0,0,0,0,0,0,0,0,0,0,0,0,0,0,0,0,0,0,0,0,0,0,0],"sum_hessian":[1.0910412E2,1.0650521E2,2.5989072E0,6.608671E1,4.0418495E1,5.2325203E1,1.376151E1,1.1226395E1,2.9192102E1,4.5490635E1,6.8345656E0,1.7730247E0,1.1988484E1,3.0604577E0,8.165936E0,2.616056E1,3.0315416E0,4.3189762E1,2.3008742E0,1.014794E0,5.819772E0,3.9265344E0,8.061951E0,5.4893737E0,2.6765628E0,2.252268E1,3.6378808E0,1.9643843E0,1.0671573E0,1.6203434E0,4.156942E1,1.6553546E0,2.2711797E0,1.6527553E0,6.4091954E0,1.7822421E0,3.7071319E0,1.1563973E1,1.0958707E1,2.515394E0,1.1224868E0],"tree_param":{"num_deleted":"0","num_feature":"3","num_nodes":"41","size_leaf_vector":"1"}},{"base_weights":[3.0424979E-2,1.9127853E-3,6.719187E-1,-6.740468E-1,3.4779545E-2,6.504786E-2,2.3641853E-1,-2.6952434E-1,7.1674143E-3,5.510292E-1,-1.6327715E-2,6.00188E-2,7.676425E-1,-4.0097344E-1,9.6935816E-2,2.4111527E-1,-2.406169E-1,2.814383E-1,1.587846E-2,-5.9933317E-1,2.6452044E-1,8.917339E-1,6.7224572E-3,1.5471293E-1,-2.4507385E-1,-2.1441932E-1,2.2623359E-1,-1.2333626E-1,3.6048648E-1,-1.9028153E-1,2.6906399E-2],"categories":[],"categories_nodes":[],"categories_segments":[],"categories_sizes":[],"default_left":[0,0,0,0,0,0,0,0,0,0,0,0,0,0,0,0,0,0,0,0,0,0,0,0,0,0,0,0,0,0,0],"id":8,"left_children":[1,3,5,7,9,-1,-1,-1,-1,11,13,15,17,19,21,-1,-1,-1,-1,23,25,27,29,-1,-1,-1,-1,-1,-1,-1,-1],"loss_changes":[1.90944E0,2.267839E0,6.3951015E-2,7.6267457E-1,2.5759082E0,0E0,0E0,0E0,0E0,8.891051E-1,3.9379435E0,3.065742E0,6.8341756E-1,2.8717337E0,5.0090904E0,0E0,0E0,0E0,0E0,4.3370514E0,3.134304E0,3.3694878E0,3.4509625E0,0E0,0E0,0E0,0E0,0E0,0E0,0E0,0E0],"parents":[2147483647,0,0,1,1,2,2,3,3,4,4,9,9,10,10,11,11,12,12,13,13,14,14,19,19,20,20,21,21,22,22],"right_children":[2,4,6,8,10,-1,-1,-1,-1,12,14,16,18,20,22,-1,-1,-1,-1,24,26,28,30,-1,-1,-1,-1,-1,-1,-1,-1],"split_conditions":[1.6701156E0,-1.3629103E0,2.08408E0,-9.0768933E-1,-1.1899325E0,6.504786E-2,2.3641853E-1,-2.6952434E-1,7.1674143E-3,-1.0549225E0,-5.3646034E-1,-1.2659565E0,-1.2393547E0,9.97158E-1,-4.2114177E-1,2.4111527E-1,-2.406169E-1,2.814383E-1,1.587846E-2,-1.0892768E0,-4.9543673E-1,-2.0227748E-1,-2.8934908E-1,1.5471293E-1,-2.4507385E-1,-2.1441932E-1,2.2623359E-1,-1.2333626E-1,3.6048648E-1,-1.9028153E-1,2.6906399E-2],"split_indices":[0,1,0,2,1,0,0,0,0,2,1,2,1,0,1,0,0,0,0,2,2,0,1,0,0,0,0,0,0,0,0],"split_type":[0,0,0,0,0,0,0,0,0,0,0,0,0,0,0,0,0,0,0,0,0,0,0,0,0,0,0,0,0,0,0],"sum_hessian":[1.0346607E2,1.0002336E2,3.442713E0,3.733303E0,9.6290054E1,1.2828618E0,2.1598513E0,2.6077456E0,1.1255575E0,7.7926235E0,8.849744E1,2.7763596E0,5.016264E0,1.9553406E1,6.894403E1,1.5268576E0,1.249502E0,3.797768E0,1.2184957E0,1.5140103E1,4.413303E0,6.1221266E0,6.28219E1,2.248235E0,1.2891869E1,1.3177555E0,3.0955472E0,1.1135925E0,5.008534E0,6.437854E0,5.638405E1],"tree_param":{"num_deleted":"0","num_feature":"3","num_nodes":"31","size_leaf_vector":"1"}},{"base_weights":[2.360537E-2,-1.278713E-1,1.19193524E-1,1.2647407E-1,-8.557737E-1,1.1972817E0,2.182475E-2,-1.0180076E-1,1.0683984E0,4.01033E-3,-9.7402877E-1,4.2280468E-1,9.3659535E-2,7.6821625E-2,-5.6302434E-1,2.7765507E-1,-7.243786E-1,4.081137E-1,4.5599484E-1,-1.0668123E0,-5.8491383E-2,-4.5079E-2,6.8644476E-1,-3.0080697E-1,4.7944434E-2,4.695138E-1,-4.036374E-1,-3.009658E-1,-1.2703116E-1,-5.365621E-2,2.6857108E-1,-3.4902832E-1,-9.816019E-2,5.7210296E-1,-1.5288538E-1,7.4415755E-1,7.230993E-2,-1.3933465E-1,1.8878566E-1,-2.6868543E-1,1.2165187E-1,1.1880279E-1,-2.1437754E-1,-8.385161E-2,2.9984853E-1,-2.1652184E-1,2.0326803E-2,2.4371164E-1,4.875468E-2],"categories":[],"categories_nodes":[],"categories_segments":[],"categories_sizes":[],"default_left":[0,0,0,0,0,0,0,0,0,0,0,0,0,0,0,0,0,0,0,0,0,0,0,0,0,0,0,0,0,0,0,0,0,0,0,0,0,0,0,0,0,0,0,0,0,0,0,0,0],"id":9,"left_children":[1,3,5,7,9,11,13,15,17,-1,19,-1,-1,21,23,25,27,-1,29,31,-1,33,35,-1,-1,37,39,-1,41,-1,-1,-1,-1,43,45,47,-1,-1,-1,-1,-1,-1,-1,-1,-1,-1,-1,-1,-1],"loss_changes":[1.4727259E0,7.4076996E0,6.506527E0,6.5784187E0,1.0755725E0,5.2409744E-1,1.911899E0,6.138426E0,4.4476414E-1,0E0,4.5075893E-1,0E0,0E0,4.0425534E0,1.7853831E0,2.3250885E0,1.5039568E0,0E0,1.1158214E0,1.8527031E-1,0E0,3.1431441E0,5.3456783E-2,0E0,0E0,2.2635264E0,2.0063465E0,0E0,1.5927655E0,0E0,0E0,0E0,0E0,2.84171E0,5.0549912E0,1.6710472E-1,0E0,0E0,0E0,0E0,0E0,0E0,0E0,0E0,0E0,0E0,0E0,0E0,0E0],"parents":[2147483647,0,0,1,1,2,2,3,3,4,4,5,5,6,6,7,7,8,8,10,10,13,13,14,14,15,15,16,16,18,18,19,19,21,21,22,22,25,25,26,26,28,28,33,33,34,34,35,35],"right_children":[2,4,6,8,10,12,14,16,18,-1,20,-1,-1,22,24,26,28,-1,30,32,-1,34,36,-1,-1,38,40,-1,42,-1,-1,-1,-1,44,46,48,-1,-1,-1,-1,-1,-1,-1,-1,-1,-1,-1,-1,-1],"split_conditions":[-2.0227748E-1,-4.7825378E-1,-3.6691695E-2,-5.907672E-1,-1.063631E0,2.2958462E-1,1.1631161E0,-7.733362E-1,-5.5432993E-1,4.01033E-3,9.9652505E-1,4.2280468E-1,9.3659535E-2,3.3941185E-1,1.7228749E0,8.934619E-1,2.2600532E-1,4.081137E-1,1.3348578E-1,9.654271E-1,-5.8491383E-2,7.7944614E-2,1.232098E0,-3.0080697E-1,4.7944434E-2,-8.5370386E-1,-1.2934453E0,-3.009658E-1,6.431657E-1,-5.365621E-2,2.6857108E-1,-3.4902832E-1,-9.816019E-2,-8.9889026E-1,3.7727275E-1,9.8442066E-1,7.230993E-2,-1.3933465E-1,1.8878566E-1,-2.6868543E-1,1.2165187E-1,1.1880279E-1,-2.1437754E-1,-8.385161E-2,2.9984853E-1,-2.1652184E-1,2.0326803E-2,2.4371164E-1,4.875468E-2],"split_indices":[0,0,0,0,1,1,1,0,2,0,2,0,0,1,2,2,2,0,1,1,0,0,2,0,0,2,0,0,2,0,0,0,0,1,0,0,0,0,0,0,0,0,0,0,0,0,0,0,0],"split_type":[0,0,0,0,0,0,0,0,0,0,0,0,0,0,0,0,0,0,0,0,0,0,0,0,0,0,0,0,0,0,0,0,0,0,0,0,0,0,0,0,0,0,0,0,0,0,0,0,0],"sum_hessian":[9.965934E1,3.8427036E1,6.1232304E1,2.9088953E1,9.338082E0,4.136435E0,5.709587E1,2.4132402E1,4.9565516E0,1.2245967E0,8.113485E0,2.8590648E0,1.2773705E0,5.2982273E1,4.113595E0,1.5338029E1,8.794373E0,2.5292733E0,2.4272785E0,6.919974E0,1.1935118E0,4.492508E1,8.057193E0,2.3170805E0,1.7965144E0,1.2210327E1,3.1277013E0,5.532401E0,3.2619717E0,1.2350451E0,1.1922334E0,5.613639E0,1.3063346E0,6.039978E0,3.8885105E1,6.5391817E0,1.5180117E0,1.5051076E0,1.070522E1,1.8785946E0,1.2491068E0,1.8982129E0,1.3637588E0,2.1339524E0,3.9060256E0,1.0232567E1,2.8652536E1,5.497725E0,1.0414565E0],"tree_param":{"num_deleted":"0","num_feature":"3","num_nodes":"49","size_leaf_vector":"1"}},{"base_weights":[1.6883986E-2,-4.114956E-3,2.1464434E-1,3.803525E-2,-3.6459297E-1,-1.8249618E-2,7.4942476E-1,-5.550988E-1,1.7529519E-1,-5.2323077E-2,2.7065715E-1,2.6934147E-1,2.993778E-1,-1.8770017E-1,-2.780928E-1,6.3354686E-2,1.4121505E-2,-1.099E-2,-2.372196E-1,2.0163295E-1,-5.1516157E-2,-5.293929E-1,1.02793716E-1,-1.7306386E-2,2.3569925E-1,-2.0598161E-1,-4.959547E-2],"categories":[],"categories_nodes":[],"categories_segments":[],"categories_sizes":[],"default_left":[0,0,0,0,0,0,0,0,0,0,0,0,0,0,0,0,0,0,0,0,0,0,0,0,0,0,0],"id":10,"left_children":[1,3,-1,5,7,9,11,13,15,17,-1,19,-1,21,-1,-1,-1,23,-1,-1,-1,25,-1,-1,-1,-1,-1],"loss_changes":[1.3924117E0,1.4261174E0,0E0,3.3819485E0,1.1078069E0,2.5226605E0,4.698665E-1,8.510177E-1,5.3483173E-3,2.343169E0,0E0,7.338754E-1,0E0,1.0924993E0,0E0,0E0,0E0,2.797803E0,0E0,0E0,0E0,8.399606E-2,0E0,0E0,0E0,0E0,0E0],"parents":[2147483647,0,0,1,1,3,3,4,4,5,5,6,6,7,7,8,8,9,9,11,11,13,13,17,17,21,21],"right_children":[2,4,-1,6,8,10,12,14,16,18,-1,20,-1,22,-1,-1,-1,24,-1,-1,-1,26,-1,-1,-1,-1,-1],"split_conditions":[2.08408E0,1.0926883E0,2.1464434E-1,9.97158E-1,1.5151443E0,1.7228749E0,-9.0438163E-1,8.934619E-1,-1.1405102E0,1.232098E0,2.7065715E-1,1.0311244E0,2.993778E-1,-2.9209477E-1,-2.780928E-1,6.3354686E-2,1.4121505E-2,1.104496E0,-2.372196E-1,2.0163295E-1,-5.1516157E-2,-8.1934947E-1,1.02793716E-1,-1.7306386E-2,2.3569925E-1,-2.0598161E-1,-4.959547E-2],"split_indices":[0,0,0,0,0,2,1,2,1,2,0,0,0,1,0,0,0,2,0,0,0,2,0,0,0,0,0],"split_type":[0,0,0,0,0,0,0,0,0,0,0,0,0,0,0,0,0,0,0,0,0,0,0,0,0,0,0],"sum_hessian":[9.3716194E1,9.194651E1,1.7696854E0,8.312169E1,8.8248205E0,7.793022E1,5.1914635E0,6.502252E0,2.3225684E0,7.605782E1,1.8724043E0,2.4814246E0,2.710039E0,4.027748E0,2.4745038E0,1.3091724E0,1.013396E0,7.298718E1,3.070637E0,1.0232084E0,1.4582162E0,2.45064E0,1.5771083E0,6.9821976E1,3.165209E0,1.0928434E0,1.3577965E0],"tree_param":{"num_deleted":"0","num_feature":"3","num_nodes":"27","size_leaf_vector":"1"}},{"base_weights":[1.8983547E-2,3.656267E-1,-1.9061042E-2,6.761606E-1,-4.830207E-1,-2.6572135E-1,9.4277956E-2,1.4261509E-2,2.6288065E-1,-2.0699097E-1,-8.732741E-3,-8.516714E-2,-9.1226554E-1,9.876853E-1,1.4785616E-2,-3.855047E-1,4.0761498E-1,-2.987757E-1,-7.740536E-2,3.661292E-1,5.6793258E-2,5.912646E-2,-4.930469E-1,-6.229698E-1,2.1853085E-1,9.0481406E-1,-3.339079E-1,-4.4066753E-2,5.8324635E-1,-2.5994706E-1,3.2339048E-2,-2.9443574E-1,-9.722036E-2,3.4834832E-1,1.1012862E-1,-2.271213E-1,6.652127E-2,4.02048E-2,-1.16462305E-1,5.3412933E-2,2.097527E-1],"categories":[],"categories_nodes":[],"categories_segments":[],"categories_sizes":[],"default_left":[0,0,0,0,0,0,0,0,0,0,0,0,0,0,0,0,0,0,0,0,0,0,0,0,0,0,0,0,0,0,0,0,0,0,0,0,0,0,0,0,0],"id":11,"left_children":[1,3,5,7,9,11,13,-1,-1,-1,-1,15,17,19,21,23,25,-1,-1,-1,-1,27,29,31,-1,33,35,37,39,-1,-1,-1,-1,-1,-1,-1,-1,-1,-1,-1,-1],"loss_changes":[1.2322125E0,2.761063E0,2.3920746E0,8.615022E-1,2.6717573E-1,3.0646453E0,4.157808E0,0E0,0E0,0E0,0E0,3.4346247E0,5.900526E-2,6.5811825E-1,1.2668494E0,4.22935E0,3.573062E0,0E0,0E0,0E0,0E0,2.8081117E0,1.1078179E0,1.0003419E0,0E0,3.42968E-1,1.1769156E0,2.743176E0,2.763481E-1,0E0,0E0,0E0,0E0,0E0,0E0,0E0,0E0,0E0,0E0,0E0,0E0],"parents":[2147483647,0,0,1,1,2,2,3,3,4,4,5,5,6,6,11,11,12,12,13,13,14,14,15,15,16,16,21,21,22,22,23,23,25,25,26,26,27,27,28,28],"right_children":[2,4,6,8,10,12,14,-1,-1,-1,-1,16,18,20,22,24,26,-1,-1,-1,-1,28,30,32,-1,34,36,38,40,-1,-1,-1,-1,-1,-1,-1,-1,-1,-1,-1,-1],"split_conditions":[-9.622738E-1,8.934619E-1,-2.0227748E-1,-5.871188E-2,-1.5333325E0,-3.2752827E-1,-3.6691695E-2,1.4261509E-2,2.6288065E-1,-2.0699097E-1,-8.732741E-3,-5.907672E-1,5.597336E-1,2.2958462E-1,1.1631161E0,1.1054568E0,-4.7825378E-1,-2.987757E-1,-7.740536E-2,3.661292E-1,5.6793258E-2,3.3941185E-1,1.7228749E0,1.6368827E-1,2.1853085E-1,-5.5432993E-1,-3.8060063E-1,-3.9643064E-1,2.5626776E-1,-2.5994706E-1,3.2339048E-2,-2.9443574E-1,-9.722036E-2,3.4834832E-1,1.1012862E-1,-2.271213E-1,6.652127E-2,4.02048E-2,-1.16462305E-1,5.3412933E-2,2.097527E-1],"split_indices":[0,2,0,1,0,0,0,0,0,0,0,0,2,1,1,1,0,0,0,0,0,1,2,1,0,2,0,1,0,0,0,0,0,0,0,0,0,0,0,0,0],"split_type":[0,0,0,0,0,0,0,0,0,0,0,0,0,0,0,0,0,0,0,0,0,0,0,0,0,0,0,0,0,0,0,0,0,0,0,0,0,0,0,0,0],"sum_hessian":[9.190665E1,8.237768E0,8.366888E1,6.1797476E0,2.0580206E0,2.5918283E1,5.7750595E1,1.7910109E0,4.3887367E0,1.0563512E0,1.0016695E0,2.1145039E1,4.773246E0,3.7851145E0,5.396548E1,1.3273122E1,7.871916E0,3.7690876E0,1.0041584E0,2.521417E0,1.2636977E0,5.0444542E1,3.5209394E0,1.13041115E1,1.9690106E0,4.5804586E0,3.2914572E0,4.291165E1,7.532891E0,1.8987093E0,1.62223E0,4.1015115E0,7.2026005E0,2.3166292E0,2.2638292E0,1.6626928E0,1.6287645E0,2.8680777E1,1.4230875E1,2.2398424E0,5.2930484E0],"tree_param":{"num_deleted":"0","num_feature":"3","num_nodes":"41","size_leaf_vector":"1"}},{"base_weights":[1.5827265E-2,-2.2249375E-3,1.9548003E-1,3.6249332E-2,-3.2716793E-1,-1.1799945E-2,6.3039315E-1,-4.862329E-1,3.8445972E-2,-2.7545917E-1,9.1781564E-2,1.9695544E-1,2.6975316E-1,-1.7451419E-1,-2.3652083E-1,-5.5523116E-2,-7.931454E-1,6.8938607E-1,-4.5092194E-3,1.5835401E-1,-4.9597748E-2,-1.7750232E-1,6.4333655E-2,-8.3998136E-2,2.98952E-1,-6.760562E-2,-2.681289E-1,-1.0513351E-1,2.8375944E-1,-2.2353081E-1,1.429234E-2],"categories":[],"categories_nodes":[],"categories_segments":[],"categories_sizes":[],"default_left":[0,0,0,0,0,0,0,0,0,0,0,0,0,0,0,0,0,0,0,0,0,0,0,0,0,0,0,0,0,0,0],"id":12,"left_children":[1,3,-1,5,7,9,11,13,-1,15,17,19,-1,21,-1,23,25,27,29,-1,-1,-1,-1,-1,-1,-1,-1,-1,-1,-1,-1],"loss_changes":[1.018318E0,1.1014053E0,0E0,2.2577188E0,7.377651E-1,2.0437233E0,5.121267E-1,5.3307784E-1,0E0,2.357897E0,3.0996566E0,5.12215E-1,0E0,9.039374E-1,0E0,4.0293193E0,1.5364313E-1,2.3247247E0,1.8637998E0,0E0,0E0,0E0,0E0,0E0,0E0,0E0,0E0,0E0,0E0,0E0,0E0],"parents":[2147483647,0,0,1,1,3,3,4,4,5,5,6,6,7,7,9,9,10,10,11,11,13,13,15,15,16,16,17,17,18,18],"right_children":[2,4,-1,6,8,10,12,14,-1,16,18,20,-1,22,-1,24,26,28,30,-1,-1,-1,-1,-1,-1,-1,-1,-1,-1,-1,-1],"split_conditions":[2.08408E0,1.0926883E0,1.9548003E-1,9.97158E-1,1.5151443E0,-5.3646034E-1,-9.0438163E-1,8.934619E-1,3.8445972E-2,-7.8631735E-1,-5.297911E-1,1.0311244E0,2.6975316E-1,-4.7089788E-1,-2.3652083E-1,-2.2550943E-1,-5.313262E-1,-8.5370386E-1,-4.365435E-1,1.5835401E-1,-4.9597748E-2,-1.7750232E-1,6.4333655E-2,-8.3998136E-2,2.98952E-1,-6.760562E-2,-2.681289E-1,-1.0513351E-1,2.8375944E-1,-2.2353081E-1,1.429234E-2],"split_indices":[0,0,0,0,0,1,1,2,0,1,2,0,0,2,0,2,0,2,2,0,0,0,0,0,0,0,0,0,0,0,0],"split_type":[0,0,0,0,0,0,0,0,0,0,0,0,0,0,0,0,0,0,0,0,0,0,0,0,0,0,0,0,0,0,0],"sum_hessian":[8.759976E1,8.61501E1,1.449655E0,7.782395E1,8.326155E0,7.290792E1,4.91603E0,6.120195E0,2.2059603E0,2.0095903E1,5.2812016E1,2.5449085E0,2.3711214E0,3.7889974E0,2.3311973E0,1.4881035E1,5.2148695E0,6.473909E0,4.6338104E1,1.0912251E0,1.4536834E0,1.5767539E0,2.2122436E0,1.2869034E1,2.0120006E0,1.2726853E0,3.9421844E0,1.2083944E0,5.2655144E0,2.1742156E0,4.416389E1],"tree_param":{"num_deleted":"0","num_feature":"3","num_nodes":"31","size_leaf_vector":"1"}},{"base_weights":[1.266672E-2,-1.2545033E-2,4.9975085E-1,3.1892482E-2,-7.8866076E-1,2.3015757E-1,-3.658406E-2,-5.6380305E-2,2.0052788E-1,-2.6695147E-1,-7.5024515E-2,8.364342E-2,-2.912319E-1,6.430339E-1,2.4893542E-3,-7.511816E-2,6.3748336E-1,1.2178426E-1,-6.280783E-1,2.7640423E-1,4.0608734E-1,-1.3642246E-1,5.2841836E-1,7.122489E-2,-8.730968E-2,-1.0999951E-1,2.74852E-1,-7.359406E-2,2.9673025E-1,-3.078817E-1,-4.631833E-2,-6.379809E-3,2.487996E-1,7.5780824E-3,-2.3343298E-1,2.1597447E-1,-3.143175E-4],"categories":[],"categories_nodes":[],"categories_segments":[],"categories_sizes":[],"default_left":[0,0,0,0,0,0,0,0,0,0,0,0,0,0,0,0,0,0,0,0,0,0,0,0,0,0,0,0,0,0,0,0,0,0,0,0,0],"id":13,"left_children":[1,3,5,7,9,-1,-1,11,13,-1,-1,15,17,19,21,23,25,27,29,-1,31,33,35,-1,-1,-1,-1,-1,-1,-1,-1,-1,-1,-1,-1,-1,-1],"loss_changes":[1.0674585E0,2.8924398E0,8.047192E-1,1.196164E0,2.492714E-2,0E0,0E0,1.7681608E0,2.4143028E0,0E0,0E0,3.0372398E0,2.863127E0,1.8767357E-1,1.5368135E0,1.912515E0,2.4850845E0,3.3740993E0,1.9530778E0,0E0,1.1734003E0,1.7475729E0,4.4628668E-1,0E0,0E0,0E0,0E0,0E0,0E0,0E0,0E0,0E0,0E0,0E0,0E0,0E0,0E0],"parents":[2147483647,0,0,1,1,2,2,3,3,4,4,7,7,8,8,11,11,12,12,13,13,14,14,15,15,16,16,17,17,18,18,20,20,21,21,22,22],"right_children":[2,4,6,8,10,-1,-1,12,14,-1,-1,16,18,20,22,24,26,28,30,-1,32,34,36,-1,-1,-1,-1,-1,-1,-1,-1,-1,-1,-1,-1,-1,-1],"split_conditions":[1.6149039E0,1.232098E0,1.4302285E0,1.6368827E-1,1.5609185E0,2.3015757E-1,-3.658406E-2,-3.9643064E-1,4.8218727E-1,-2.6695147E-1,-7.5024515E-2,-5.3646034E-1,-1.5462749E-2,-4.218202E-1,1.6573387E0,-1.1899325E0,-2.0227748E-1,-2.2987512E-1,3.9637882E-1,2.7640423E-1,3.3397624E-1,1.3004001E0,1.1192193E0,7.122489E-2,-8.730968E-2,-1.0999951E-1,2.74852E-1,-7.359406E-2,2.9673025E-1,-3.078817E-1,-4.631833E-2,-6.379809E-3,2.487996E-1,7.5780824E-3,-2.3343298E-1,2.1597447E-1,-3.143175E-4],"split_indices":[2,2,0,1,2,0,0,1,1,0,0,1,0,2,1,1,0,0,0,0,2,1,2,0,0,0,0,0,0,0,0,0,0,0,0,0,0],"split_type":[0,0,0,0,0,0,0,0,0,0,0,0,0,0,0,0,0,0,0,0,0,0,0,0,0,0,0,0,0,0,0,0,0,0,0,0,0],"sum_hessian":[8.5414345E1,8.213712E1,3.2772198E0,7.859592E1,3.5412042E0,2.127841E0,1.1493788E0,5.2027573E1,2.6568346E1,2.4321115E0,1.1090927E0,3.2997547E1,1.9030024E1,7.519478E0,1.904887E1,2.6317768E1,6.67978E0,8.835295E0,1.0194729E1,2.129631E0,5.389847E0,1.5654664E1,3.3942053E0,1.0712254E1,1.5605515E1,1.382569E0,5.297211E0,6.711685E0,2.1236098E0,4.9049187E0,5.28981E0,3.1544895E0,2.235357E0,1.3271378E1,2.3832867E0,2.228504E0,1.1657014E0],"tree_param":{"num_deleted":"0","num_feature":"3","num_nodes":"37","size_leaf_vector":"1"}},{"base_weights":[1.3761306E-2,3.3291362E-2,-1.4658128E-1,-7.855465E-6,2.313839E-1,3.3294633E-2,-2.3709635E-1,4.9067068E-1,-9.852132E-3,-3.0885385E-2,2.286582E-1,-4.8254624E-2,5.6970185E-1,-9.395146E-2,2.1098709E-2,2.3446578E-1,-1.5382666E-2],"categories":[],"categories_nodes":[],"categories_segments":[],"categories_sizes":[],"default_left":[0,0,0,0,0,0,0,0,0,0,0,0,0,0,0,0,0],"id":14,"left_children":[1,3,-1,5,-1,7,-1,9,11,-1,-1,13,15,-1,-1,-1,-1],"loss_changes":[8.2651407E-1,1.9765164E0,0E0,2.0780976E0,0E0,1.4999937E0,0E0,1.1343482E0,1.5901886E0,0E0,0E0,2.1196618E0,6.2436986E-1,0E0,0E0,0E0,0E0],"parents":[2147483647,0,0,1,1,3,3,5,5,7,7,8,8,11,11,12,12],"right_children":[2,4,-1,6,-1,8,-1,10,12,-1,-1,14,16,-1,-1,-1,-1],"split_conditions":[2.3327763E0,1.5658263E0,-1.4658128E-1,1.232098E0,2.313839E-1,-9.622738E-1,-2.3709635E-1,-1.582159E0,1.0652338E0,-3.0885385E-2,2.286582E-1,-2.0227748E-1,-3.881459E-2,-9.395146E-2,2.1098709E-2,2.3446578E-1,-1.5382666E-2],"split_indices":[1,2,0,2,0,0,0,0,2,0,0,0,0,0,0,0,0],"split_type":[0,0,0,0,0,0,0,0,0,0,0,0,0,0,0,0,0],"sum_hessian":[8.1583725E1,7.942954E1,2.154187E0,7.69571E1,2.472439E0,7.476452E1,2.192581E0,5.550843E0,6.921368E1,1.936964E0,3.6138785E0,6.577221E1,3.4414692E0,1.9830273E1,4.5941936E1,2.373238E0,1.068231E0],"tree_param":{"num_deleted":"0","num_feature":"3","num_nodes":"17","size_leaf_vector":"1"}},{"base_weights":[1.2990828E-2,-3.306862E-3,1.7721575E-1,3.0053247E-2,-3.1144327E-1,-1.4032326E-2,5.031651E-1,-2.4384637E-1,-1.1726162E-1,2.4420552E-2,-5.9258837E-1,1.944013E-1,1.9818078E-1,1.3235325E-1,-3.1859022E-1,-2.269627E-1,5.8683343E-2,-2.7737662E-1,1.6945241E-2,1.422917E-1,-3.9877485E-2,-5.635308E-1,5.5732694E-2,1.9440295E-1,5.8931755E-3,-3.0345978E-2,-2.3799917E-1,1.7484203E-1,-1.5243965E-1],"categories":[],"categories_nodes":[],"categories_segments":[],"categories_sizes":[],"default_left":[0,0,0,0,0,0,0,0,0,0,0,0,0,0,0,0,0,0,0,0,0,0,0,0,0,0,0,0,0],"id":15,"left_children":[1,3,-1,5,7,9,11,-1,13,15,17,19,-1,-1,21,-1,23,-1,-1,-1,-1,25,27,-1,-1,-1,-1,-1,-1],"loss_changes":[7.607649E-1,8.252811E-1,0E0,1.5198905E0,6.6816026E-1,1.5122006E0,1.7343855E-1,0E0,9.074636E-1,1.7592373E0,9.6487796E-1,3.8500237E-1,0E0,0E0,5.443366E-1,0E0,1.4211022E0,0E0,0E0,0E0,0E0,2.8862357E-1,1.2242254E0,0E0,0E0,0E0,0E0,0E0,0E0],"parents":[2147483647,0,0,1,1,3,3,4,4,5,5,6,6,8,8,9,9,10,10,11,11,14,14,16,16,21,21,22,22],"right_children":[2,4,-1,6,8,10,12,-1,14,16,18,20,-1,-1,22,-1,24,-1,-1,-1,-1,26,28,-1,-1,-1,-1,-1,-1],"split_conditions":[2.08408E0,1.137269E0,1.7721575E-1,9.97158E-1,1.2009559E0,8.6978436E-1,-9.0438163E-1,-2.4384637E-1,-1.2201349E0,-1.3629103E0,9.4408566E-1,1.0311244E0,1.9818078E-1,1.3235325E-1,-2.9209477E-1,-2.269627E-1,-1.3025054E0,-2.7737662E-1,1.6945241E-2,1.422917E-1,-3.9877485E-2,-5.858826E-1,6.167256E-1,1.9440295E-1,5.8931755E-3,-3.0345978E-2,-2.3799917E-1,1.7484203E-1,-1.5243965E-1],"split_indices":[0,0,0,0,0,0,1,0,1,1,0,0,0,0,1,0,1,0,0,0,0,1,1,0,0,0,0,0,0],"split_type":[0,0,0,0,0,0,0,0,0,0,0,0,0,0,0,0,0,0,0,0,0,0,0,0,0,0,0,0,0],"sum_hessian":[7.959056E1,7.837391E1,1.2166483E0,7.153203E1,6.841882E0,6.632231E1,5.2097144E0,1.0206579E0,5.821224E0,6.3087112E1,3.235202E0,2.5140278E0,2.6956863E0,1.2268621E0,4.5943623E0,1.7654754E0,6.1321636E1,1.8595605E0,1.3756416E0,1.1131322E0,1.4008957E0,2.4715931E0,2.1227694E0,2.8406875E0,5.848095E1,1.2986912E0,1.1729019E0,1.0798159E0,1.0429535E0],"tree_param":{"num_deleted":"0","num_feature":"3","num_nodes":"29","size_leaf_vector":"1"}},{"base_weights":[7.1717924E-3,-6.9306106E-3,1.6296217E-1,-7.662143E-2,1.075349E-1,-1.7074662E-1,2.5239703E-1,4.499719E-1,-7.7985756E-2,7.571586E-2,-3.9439994E-1,5.1829135E-1,-2.0824898E-2,3.0336523E-1,1.6191188E-1,-2.1298732E-1,2.5405645E-1,-2.4881741E-1,4.6404582E-1,2.1270289E-1,-5.312327E-1,4.3899022E-2,1.895049E-1,1.4036298E-1,-2.8222966E-1,-2.0840432E-1,6.1254185E-1,-5.921995E-1,9.2264324E-2,6.0581094E-1,-2.9696095E-1,6.31857E-3,-2.512385E-1,1.9550357E-2,2.3677178E-1,-6.382805E-2,2.1596377E-1,-3.0511916E-1,-1.017959E-1,-2.0606117E-1,2.4415575E-2,2.0993412E-2,-2.0610875E-1,2.1704765E-1,5.3893376E-2,-2.1911334E-1,-4.712654E-2,1.3850532E-1,-1.6027051E-1,-2.1284172E-2,2.8232816E-1,-1.3438746E-1,-1.9729335E-3],"categories":[],"categories_nodes":[],"categories_segments":[],"categories_sizes":[],"default_left":[0,0,0,0,0,0,0,0,0,0,0,0,0,0,0,0,0,0,0,0,0,0,0,0,0,0,0,0,0,0,0,0,0,0,0,0,0,0,0,0,0,0,0,0,0,0,0,0,0,0,0,0,0],"id":16,"left_children":[1,3,-1,5,7,9,11,13,15,17,19,21,23,-1,25,27,29,31,33,35,37,-1,-1,-1,39,41,43,45,47,49,51,-1,-1,-1,-1,-1,-1,-1,-1,-1,-1,-1,-1,-1,-1,-1,-1,-1,-1,-1,-1,-1,-1],"loss_changes":[6.0240394E-1,6.316482E-1,0E0,1.5654883E0,1.9403411E0,2.1697145E0,8.3451533E-1,1.5639112E0,9.642679E-1,2.5486834E0,1.8170326E0,1.5155888E-1,9.6926016E-1,0E0,1.5047618E0,1.7885435E0,1.4058414E0,1.7919061E0,1.1339766E0,1.1213967E0,1.2423363E0,0E0,0E0,0E0,7.758931E-1,7.510482E-1,6.1012387E-2,2.9500604E-1,2.3675838E0,1.0173914E0,1.3453883E-1,0E0,0E0,0E0,0E0,0E0,0E0,0E0,0E0,0E0,0E0,0E0,0E0,0E0,0E0,0E0,0E0,0E0,0E0,0E0,0E0,0E0,0E0],"parents":[2147483647,0,0,1,1,3,3,4,4,5,5,6,6,7,7,8,8,9,9,10,10,11,11,12,12,14,14,15,15,16,16,17,17,18,18,19,19,20,20,24,24,25,25,26,26,27,27,28,28,29,29,30,30],"right_children":[2,4,-1,6,8,10,12,14,16,18,20,22,24,-1,26,28,30,32,34,36,38,-1,-1,-1,40,42,44,46,48,50,52,-1,-1,-1,-1,-1,-1,-1,-1,-1,-1,-1,-1,-1,-1,-1,-1,-1,-1,-1,-1,-1,-1],"split_conditions":[2.08408E0,1.6368827E-1,1.6296217E-1,1.6711208E-1,6.3045406E-1,-5.788688E-1,4.8611706E-1,-7.457385E-1,-6.024857E-4,-8.9889026E-1,-1.1048163E0,3.4967515E-1,-3.9643064E-1,3.0336523E-1,2.5626776E-1,1.1054568E0,1.1631161E0,-1.1899325E0,-2.0227748E-1,-3.580192E-1,-3.5311142E-1,4.3899022E-2,1.895049E-1,1.4036298E-1,6.0390353E-1,4.8218727E-1,8.934619E-1,-6.523312E-1,-4.9311405E-1,8.061776E-1,1.4102274E0,6.31857E-3,-2.512385E-1,1.9550357E-2,2.3677178E-1,-6.382805E-2,2.1596377E-1,-3.0511916E-1,-1.017959E-1,-2.0606117E-1,2.4415575E-2,2.0993412E-2,-2.0610875E-1,2.1704765E-1,5.3893376E-2,-2.1911334E-1,-4.712654E-2,1.3850532E-1,-1.6027051E-1,-2.1284172E-2,2.8232816E-1,-1.3438746E-1,-1.9729335E-3],"split_indices":[0,1,0,2,1,2,2,0,0,1,1,0,1,0,0,1,1,1,0,2,2,0,0,0,2,1,2,0,0,1,1,0,0,0,0,0,0,0,0,0,0,0,0,0,0,0,0,0,0,0,0,0,0],"split_type":[0,0,0,0,0,0,0,0,0,0,0,0,0,0,0,0,0,0,0,0,0,0,0,0,0,0,0,0,0,0,0,0,0,0,0,0,0,0,0,0,0,0,0,0,0,0,0,0,0,0,0,0,0],"sum_hessian":[7.819149E1,7.714887E1,1.0426171E0,4.81587E1,2.8990173E1,3.7820187E1,1.03385105E1,9.68605E0,1.9304123E1,1.8307293E1,1.9512894E1,4.7849393E0,5.553571E0,2.4337611E0,7.2522893E0,1.3979072E1,5.3250513E0,1.0168547E1,8.138746E0,3.48704E0,1.6025854E1,1.6530114E0,3.131928E0,1.660109E0,3.8934622E0,4.27595E0,2.9763396E0,5.8150434E0,8.164028E0,3.1895125E0,2.1355386E0,7.6331496E0,2.535397E0,4.194376E0,3.9443696E0,2.2119591E0,1.2750807E0,3.3204563E0,1.2705399E1,1.4220074E0,2.4714549E0,3.2433279E0,1.0326219E0,1.8348053E0,1.1415343E0,3.8984208E0,1.9166226E0,5.301205E0,2.8628228E0,1.3178564E0,1.8716561E0,1.0479672E0,1.0875713E0],"tree_param":{"num_deleted":"0","num_feature":"3","num_nodes":"53","size_leaf_vector":"1"}},{"base_weights":[9.20842E-3,2.807933E-2,-1.3341035E-1,1.9677544E-3,1.9560158E-1,3.2209132E-2,-2.1745968E-1,4.0606615E-1,-2.645384E-3,-2.707231E-2,1.9914936E-1,-3.449231E-2,4.7945234E-1,-6.774411E-2,1.47617245E-2,2.0684244E-1,4.2931695E-2],"categories":[],"categories_nodes":[],"categories_segments":[],"categories_sizes":[],"default_left":[0,0,0,0,0,0,0,0,0,0,0,0,0,0,0,0,0],"id":17,"left_children":[1,3,-1,5,-1,7,-1,9,11,-1,-1,13,15,-1,-1,-1,-1],"loss_changes":[6.5855145E-1,1.1937901E0,0E0,1.5929966E0,0E0,9.069113E-1,0E0,8.191396E-1,1.0080768E0,0E0,0E0,9.9612397E-1,1.8876362E-1,0E0,0E0,0E0,0E0],"parents":[2147483647,0,0,1,1,3,3,5,5,7,7,8,8,11,11,12,12],"right_children":[2,4,-1,6,-1,8,-1,10,12,-1,-1,14,16,-1,-1,-1,-1],"split_conditions":[2.3327763E0,1.5658263E0,-1.3341035E-1,1.232098E0,1.9560158E-1,-9.622738E-1,-2.1745968E-1,-1.582159E0,1.0652338E0,-2.707231E-2,1.9914936E-1,-2.0227748E-1,-2.341209E-1,-6.774411E-2,1.47617245E-2,2.0684244E-1,4.2931695E-2],"split_indices":[1,2,0,2,0,0,0,0,2,0,0,0,0,0,0,0,0],"split_type":[0,0,0,0,0,0,0,0,0,0,0,0,0,0,0,0,0],"sum_hessian":[7.442471E1,7.235477E1,2.0699499E0,7.041118E1,1.9435853E0,6.851611E1,1.8950667E0,4.934738E0,6.3581375E1,1.9090042E0,3.0257342E0,6.0512436E1,3.0689414E0,1.7899307E1,4.261313E1,1.2429332E0,1.8260082E0],"tree_param":{"num_deleted":"0","num_feature":"3","num_nodes":"17","size_leaf_vector":"1"}},{"base_weights":[9.939862E-3,9.397747E-2,-6.9343284E-2,8.188365E-4,9.0851873E-1,-2.890916E-1,8.2834706E-2,1.266517E-1,-1.837879E-1,3.2933554E-1,7.726776E-2,-5.337087E-1,3.082992E-1,5.872329E-1,-5.065666E-2,-6.8382695E-2,7.588858E-1,-5.789792E-1,1.710347E-1,-1.0973053E-1,-2.9541E-1,3.0523294E-1,-1.5985976E-1,2.4412058E-1,-4.003985E-2,-6.858141E-1,1.4343709E-1,1.572081E-1,-4.6351352E-1,2.9590005E-1,8.175665E-2,3.2015257E-2,-7.156124E-1,7.369998E-1,-3.2359982E-1,-4.9381354E-1,2.4310955E-1,-2.1347696E-1,7.902944E-2,-4.733423E-2,-2.5086173E-1,1.9644396E-1,2.974308E-2,9.44281E-2,-1.0800056E-1,-2.1220443E-1,4.6826825E-2,-3.8883433E-2,-2.4813266E-1,2.9058674E-1,2.4303203E-2,-1.6789453E-1,4.0536723E-3,-1.3593618E-4,-1.8253317E-1,6.4104475E-2,-9.303416E-2],"categories":[],"categories_nodes":[],"categories_segments":[],"categories_sizes":[],"default_left":[0,0,0,0,0,0,0,0,0,0,0,0,0,0,0,0,0,0,0,0,0,0,0,0,0,0,0,0,0,0,0,0,0,0,0,0,0,0,0,0,0,0,0,0,0,0,0,0,0,0,0,0,0,0,0,0,0],"id":18,"left_children":[1,3,5,7,9,11,13,15,17,-1,-1,19,21,23,25,27,29,31,33,35,-1,-1,37,-1,-1,39,41,43,45,-1,-1,-1,47,49,51,53,-1,-1,-1,-1,-1,-1,55,-1,-1,-1,-1,-1,-1,-1,-1,-1,-1,-1,-1,-1,-1],"loss_changes":[4.9944216E-1,2.7566998E0,1.3162125E0,8.040279E-1,1.766367E-1,2.5076356E0,1.6194234E0,2.589405E0,2.0665545E0,0E0,0E0,2.137154E0,1.9195559E0,9.280919E-1,2.5133188E0,1.5565226E0,2.770393E-1,7.1965075E-1,2.5243342E0,2.93672E0,0E0,0E0,1.1337323E0,0E0,0E0,2.4590278E-1,9.00952E-1,1.0375516E0,1.0625837E0,0E0,0E0,0E0,2.7535105E-1,5.464957E-1,4.095834E-1,3.2124674E-1,0E0,0E0,0E0,0E0,0E0,0E0,9.4139385E-1,0E0,0E0,0E0,0E0,0E0,0E0,0E0,0E0,0E0,0E0,0E0,0E0,0E0,0E0],"parents":[2147483647,0,0,1,1,2,2,3,3,4,4,5,5,6,6,7,7,8,8,11,11,12,12,13,13,14,14,15,15,16,16,17,17,18,18,19,19,22,22,25,25,26,26,27,27,28,28,32,32,33,33,34,34,35,35,42,42],"right_children":[2,4,6,8,10,12,14,16,18,-1,-1,20,22,24,26,28,30,32,34,36,-1,-1,38,-1,-1,40,42,44,46,-1,-1,-1,48,50,52,54,-1,-1,-1,-1,-1,-1,56,-1,-1,-1,-1,-1,-1,-1,-1,-1,-1,-1,-1,-1,-1],"split_conditions":[7.7944614E-2,3.9732512E-2,-2.2550943E-1,-4.7825378E-1,5.2469883E-2,1.0226327E0,-2.4290904E-2,-5.907672E-1,-2.0227748E-1,3.2933554E-1,7.726776E-2,-6.475776E-1,1.0502304E0,1.0226327E0,1.4257324E-1,-7.733362E-1,7.033513E-2,-9.5185924E-1,-3.6691695E-2,-8.0953395E-1,-2.9541E-1,3.0523294E-1,1.2009559E0,2.4412058E-1,-4.003985E-2,-6.4079624E-1,-5.858826E-1,8.934619E-1,9.928839E-1,2.9590005E-1,8.175665E-2,3.2015257E-2,-3.7847775E-1,2.2958462E-1,-5.501888E-1,-1.1923399E0,2.4310955E-1,-2.1347696E-1,7.902944E-2,-4.733423E-2,-2.5086173E-1,1.9644396E-1,8.6978436E-1,9.44281E-2,-1.0800056E-1,-2.1220443E-1,4.6826825E-2,-3.8883433E-2,-2.4813266E-1,2.9058674E-1,2.4303203E-2,-1.6789453E-1,4.0536723E-3,-1.3593618E-4,-1.8253317E-1,6.4104475E-2,-9.303416E-2],"split_indices":[0,0,2,0,0,0,2,0,0,0,0,2,0,0,2,0,1,2,0,2,0,0,0,0,0,1,1,2,1,0,0,0,0,1,1,2,0,0,0,0,0,0,0,0,0,0,0,0,0,0,0,0,0,0,0,0,0],"split_type":[0,0,0,0,0,0,0,0,0,0,0,0,0,0,0,0,0,0,0,0,0,0,0,0,0,0,0,0,0,0,0,0,0,0,0,0,0,0,0,0,0,0,0,0,0,0,0,0,0,0,0,0,0,0,0,0,0],"sum_hessian":[7.298211E1,3.5338783E1,3.7643326E1,3.261018E1,2.728603E0,1.5034086E1,2.260924E1,1.9578732E1,1.3031448E1,1.5821751E0,1.1464279E0,1.0742068E1,4.2920175E0,4.0201263E0,1.8589113E1,1.5644489E1,3.9342425E0,5.866152E0,7.165296E0,6.1777024E0,4.5643663E0,1.2401757E0,3.0518417E0,2.9605794E0,1.0595472E0,3.757981E0,1.4831131E1,1.0342064E1,5.3024254E0,1.9802189E0,1.9540236E0,1.0110625E0,4.8550897E0,3.1131797E0,4.0521164E0,4.6852164E0,1.4924861E0,1.0292281E0,2.0226138E0,1.2873074E0,2.4706736E0,1.831941E0,1.299919E1,8.227296E0,2.114768E0,3.703399E0,1.5990267E0,1.121772E0,3.7333174E0,1.9485759E0,1.164604E0,1.9950442E0,2.0570722E0,1.072634E0,3.6125822E0,8.67522E0,4.3239703E0],"tree_param":{"num_deleted":"0","num_feature":"3","num_nodes":"57","size_leaf_vector":"1"}},{"base_weights":[1.2720043E-2,-4.0785912E-3,1.1784488E-1,2.79171E-2,-5.672987E-1,-5.8935873E-2,1.5333734E-1,-2.0755033E-1,-6.153624E-2,4.5756504E-2,-3.0328378E-1,6.267731E-1,5.684372E-2,-4.3392435E-2,1.7989294E-1,-7.0725936E-1,-7.896953E-2,2.772079E-1,-3.4437954E-2,-5.9688914E-1,1.65971E-1,-4.3692283E-2,8.051721E-2,-4.4341043E-2,-2.519904E-1,2.9303981E-2,-2.0017429E-1,-2.315398E-1,-2.9196864E-2,2.4615727E-1,8.569984E-3],"categories":[],"categories_nodes":[],"categories_segments":[],"categories_sizes":[],"default_left":[0,0,0,0,0,0,0,0,0,0,0,0,0,0,0,0,0,0,0,0,0,0,0,0,0,0,0,0,0,0,0],"id":19,"left_children":[1,3,-1,5,7,9,11,-1,-1,13,15,17,19,21,-1,23,25,-1,-1,27,29,-1,-1,-1,-1,-1,-1,-1,-1,-1,-1],"loss_changes":[4.4890612E-1,1.2426637E0,0E0,7.2114825E-1,2.5267482E-2,1.0204351E0,1.1989809E0,0E0,0E0,1.4290702E0,1.0254922E0,1.0926977E0,1.7790825E0,8.4906286E-1,0E0,1.8282866E-1,9.794945E-1,0E0,0E0,2.3825514E-1,1.8619488E0,0E0,0E0,0E0,0E0,0E0,0E0,0E0,0E0,0E0,0E0],"parents":[2147483647,0,0,1,1,3,3,4,4,5,5,6,6,9,9,10,10,11,11,12,12,13,13,15,15,16,16,19,19,20,20],"right_children":[2,4,-1,6,8,10,12,-1,-1,14,16,18,20,22,-1,24,26,-1,-1,28,30,-1,-1,-1,-1,-1,-1,-1,-1,-1,-1],"split_conditions":[1.7228749E0,1.232098E0,1.1784488E-1,3.4641273E-2,1.3449767E0,-3.9643064E-1,-4.218202E-1,-2.0755033E-1,-6.153624E-2,-4.5408994E-1,-2.8934908E-1,4.8218727E-1,-6.355306E-2,1.0226327E0,1.7989294E-1,-4.5126683E-1,-1.2035303E-2,2.772079E-1,-3.4437954E-2,1.6368827E-1,1.5729655E-1,-4.3692283E-2,8.051721E-2,-4.4341043E-2,-2.519904E-1,2.9303981E-2,-2.0017429E-1,-2.315398E-1,-2.9196864E-2,2.4615727E-1,8.569984E-3],"split_indices":[2,2,0,1,2,1,2,0,0,1,1,1,2,0,0,2,1,0,0,1,2,0,0,0,0,0,0,0,0,0,0],"split_type":[0,0,0,0,0,0,0,0,0,0,0,0,0,0,0,0,0,0,0,0,0,0,0,0,0,0,0,0,0,0,0],"sum_hessian":[6.9054375E1,6.707904E1,1.9753383E0,6.437257E1,2.7064757E0,3.834731E1,2.6025253E1,1.3366573E0,1.3698184E0,2.7414248E1,1.09330635E1,3.4758542E0,2.2549398E1,2.4407482E1,3.006765E0,3.1346948E0,7.798369E0,2.3056135E0,1.1702408E0,2.5863097E0,1.9963089E1,1.8781134E1,5.6263485E0,1.0062827E0,2.128412E0,6.6388087E0,1.1595602E0,1.5119876E0,1.0743221E0,2.6010182E0,1.736207E1],"tree_param":{"num_deleted":"0","num_feature":"3","num_nodes":"31","size_leaf_vector":"1"}},{"base_weights":[6.5035573E-3,-1.0040877E-2,1.294202E-1,2.77801E-2,-4.0868613E-1,-9.303203E-3,4.1522315E-1,-1.7331898E-1,-1.8742548E-1,1.9368384E-2,-4.211986E-1,3.624022E-2,1.7628217E-1,8.1544936E-2,-1.3267148E-1,-1.9174929E-1,4.7561973E-2,-2.2365426E-1,-3.184303E-3,1.7595915E-1,2.5169638E-3],"categories":[],"categories_nodes":[],"categories_segments":[],"categories_sizes":[],"default_left":[0,0,0,0,0,0,0,0,0,0,0,0,0,0,0,0,0,0,0,0,0],"id":20,"left_children":[1,3,-1,5,7,9,11,-1,13,15,17,-1,-1,-1,-1,-1,19,-1,-1,-1,-1],"loss_changes":[4.8381746E-1,1.0159389E0,0E0,8.9167506E-1,1.1004919E-1,6.857126E-1,2.0408225E-1,0E0,5.892706E-1,1.0440332E0,4.9512303E-1,0E0,0E0,0E0,0E0,0E0,1.120047E0,0E0,0E0,0E0,0E0],"parents":[2147483647,0,0,1,1,3,3,4,4,5,5,6,6,8,8,9,9,10,10,16,16],"right_children":[2,4,-1,6,8,10,12,-1,14,16,18,-1,-1,-1,-1,-1,20,-1,-1,-1,-1],"split_conditions":[1.6701156E0,1.137269E0,1.294202E-1,9.97158E-1,-4.7089788E-1,8.6978436E-1,-9.0438163E-1,-1.7331898E-1,-5.858826E-1,-1.3629103E0,9.355941E-1,3.624022E-2,1.7628217E-1,8.1544936E-2,-1.3267148E-1,-1.9174929E-1,-1.3025054E0,-2.2365426E-1,-3.184303E-3,1.7595915E-1,2.5169638E-3],"split_indices":[0,0,0,0,2,0,1,0,1,1,0,0,0,0,0,0,1,0,0,0,0],"split_type":[0,0,0,0,0,0,0,0,0,0,0,0,0,0,0,0,0,0,0,0,0],"sum_hessian":[6.720874E1,6.5629654E1,1.5790865E0,6.0792366E1,4.837287E0,5.6372753E1,4.4196124E0,1.8289111E0,3.0083761E0,5.359504E1,2.7777145E0,2.2601562E0,2.1594563E0,1.0497359E0,1.9586401E0,1.3106619E0,5.2284378E1,1.0961438E0,1.6815705E0,2.5957873E0,4.968859E1],"tree_param":{"num_deleted":"0","num_feature":"3","num_nodes":"21","size_leaf_vector":"1"}},{"base_weights":[2.8201027E-3,-1.2580373E-2,1.0663664E-1,1.5969215E-2,-5.234134E-1,-8.8497745E-3,4.0382034E-1,-1.9171908E-1,-5.6848932E-2,3.2287728E-2,-6.317134E-1,1.5084288E-1,2.6590545E-2,-6.035223E-2,1.9870932E-1,-4.1587736E-2,-2.3571078E-1,1.1555901E-1,-3.144617E-2,9.143437E-3,1.3623497E-1],"categories":[],"categories_nodes":[],"categories_segments":[],"categories_sizes":[],"default_left":[0,0,0,0,0,0,0,0,0,0,0,0,0,0,0,0,0,0,0,0,0],"id":21,"left_children":[1,3,-1,5,7,9,11,-1,-1,13,15,-1,-1,17,19,-1,-1,-1,-1,-1,-1],"loss_changes":[3.7020785E-1,9.635151E-1,0E0,6.099871E-1,1.3913155E-2,1.5625643E0,7.431251E-2,0E0,0E0,8.970883E-1,1.7790258E-1,0E0,0E0,7.862669E-1,8.7826824E-1,0E0,0E0,0E0,0E0,0E0,0E0],"parents":[2147483647,0,0,1,1,3,3,4,4,5,5,6,6,9,9,10,10,13,13,14,14],"right_children":[2,4,-1,6,8,10,12,-1,-1,14,16,-1,-1,18,20,-1,-1,-1,-1,-1,-1],"split_conditions":[1.7228749E0,1.232098E0,1.0663664E-1,1.6573387E0,1.3449767E0,1.275689E0,-5.440635E-1,-1.9171908E-1,-5.6848932E-2,3.4641273E-2,-2.4048959E-1,1.5084288E-1,2.6590545E-2,-1.2659565E0,-3.2445908E-2,-4.1587736E-2,-2.3571078E-1,1.1555901E-1,-3.144617E-2,9.143437E-3,1.3623497E-1],"split_indices":[2,2,0,1,2,1,0,0,0,1,0,0,0,2,0,0,0,0,0,0,0],"split_type":[0,0,0,0,0,0,0,0,0,0,0,0,0,0,0,0,0,0,0,0,0],"sum_hessian":[6.634538E1,6.449313E1,1.852253E0,6.1996964E1,2.4961658E0,5.918673E1,2.8102365E0,1.1752758E0,1.3208898E0,5.6409294E1,2.7774324E0,1.6855713E0,1.1246653E0,3.6646866E1,1.9762428E1,1.1131747E0,1.6642576E0,2.6303086E0,3.401656E1,1.2589396E1,7.1730313E0],"tree_param":{"num_deleted":"0","num_feature":"3","num_nodes":"21","size_leaf_vector":"1"}},{"base_weights":[1.7166301E-3,1.8109554E-2,-1.1247295E-1,-2.855043E-3,1.5992944E-1,1.7002704E-2,-1.6059332E-1,-5.8521032E-3,1.594893E-1,2.7268438E-2,-4.6341887E-1,-1.2345933E-2,5.2432768E-2,3.7137676E-2,-2.3596956E-1],"categories":[],"categories_nodes":[],"categories_segments":[],"categories_sizes":[],"default_left":[0,0,0,0,0,0,0,0,0,0,0,0,0,0,0],"id":22,"left_children":[1,3,-1,5,-1,7,-1,9,-1,11,13,-1,-1,-1,-1],"loss_changes":[4.1584975E-1,6.973109E-1,0E0,6.743723E-1,0E0,7.279446E-1,0E0,9.2185366E-1,0E0,5.81365E-1,8.7634116E-1,0E0,0E0,0E0,0E0],"parents":[2147483647,0,0,1,1,3,3,5,5,7,7,9,9,10,10],"right_children":[2,4,-1,6,-1,8,-1,10,-1,12,14,-1,-1,-1,-1],"split_conditions":[2.3327763E0,1.5658263E0,-1.1247295E-1,1.232098E0,1.5992944E-1,1.6738127E0,-1.6059332E-1,1.275689E0,1.594893E-1,2.2600532E-1,-5.440635E-1,-1.2345933E-2,5.2432768E-2,3.7137676E-2,-2.3596956E-1],"split_indices":[1,2,0,2,0,1,0,1,0,2,0,0,0,0,0],"split_type":[0,0,0,0,0,0,0,0,0,0,0,0,0,0,0],"sum_hessian":[6.525522E1,6.344562E1,1.8095977E0,6.1919407E1,1.5262126E0,6.0626434E1,1.2929728E0,5.8995075E1,1.6313617E0,5.588994E1,3.105135E0,3.8672604E1,1.7217335E1,1.321203E0,1.783932E0],"tree_param":{"num_deleted":"0","num_feature":"3","num_nodes":"15","size_leaf_vector":"1"}},{"base_weights":[-8.466092E-4,-1.4578392E-2,1.09037325E-1,1.8107004E-2,-3.6264852E-1,-1.7120264E-2,3.9122492E-1,-4.439045E-1,-3.052418E-2,3.1474435E-1,-4.5765E-2,1.807609E-1,1.4536662E-1,-1.6697311E-1,-4.3173224E-2,-3.674313E-2,5.1713455E-1,-3.1566972E-1,4.4081282E-2,-8.200243E-2,1.3325283E-1,2.4196488E-1,-9.433753E-3,2.634679E-3,-2.5724092E-1,1.4264533E-1,-9.09253E-3],"categories":[],"categories_nodes":[],"categories_segments":[],"categories_sizes":[],"default_left":[0,0,0,0,0,0,0,0,0,0,0,0,0,0,0,0,0,0,0,0,0,0,0,0,0,0,0],"id":23,"left_children":[1,3,-1,5,7,9,11,13,-1,15,17,-1,19,-1,-1,-1,21,23,25,-1,-1,-1,-1,-1,-1,-1,-1],"loss_changes":[3.3221132E-1,7.339647E-1,0E0,7.874576E-1,7.219863E-2,5.3947276E-1,1.8081611E-1,5.253899E-2,0E0,4.629259E-1,1.2680924E0,0E0,5.850759E-1,0E0,0E0,0E0,5.458462E-1,2.299646E0,1.2878108E0,0E0,0E0,0E0,0E0,0E0,0E0,0E0,0E0],"parents":[2147483647,0,0,1,1,3,3,4,4,5,5,6,6,7,7,9,9,10,10,12,12,16,16,17,17,18,18],"right_children":[2,4,-1,6,8,10,12,14,-1,16,18,-1,20,-1,-1,-1,22,24,26,-1,-1,-1,-1,-1,-1,-1,-1],"split_conditions":[1.6701156E0,1.137269E0,1.09037325E-1,9.97158E-1,1.481178E0,-1.0892768E0,-1.1048163E0,1.08218856E-1,-3.052418E-2,-2.2987512E-1,-5.3646034E-1,1.807609E-1,-7.2316664E-1,-1.6697311E-1,-4.3173224E-2,-3.674313E-2,5.2469883E-2,-8.439766E-1,-5.1016E-1,-8.200243E-2,1.3325283E-1,2.4196488E-1,-9.433753E-3,2.634679E-3,-2.5724092E-1,1.4264533E-1,-9.09253E-3],"split_indices":[0,0,0,0,0,2,1,2,0,0,1,0,1,0,0,0,0,1,2,0,0,0,0,0,0,0,0],"split_type":[0,0,0,0,0,0,0,0,0,0,0,0,0,0,0,0,0,0,0,0,0,0,0,0,0,0,0],"sum_hessian":[6.4349236E1,6.2936924E1,1.4123087E0,5.84008E1,4.5361266E0,5.4234463E1,4.166335E0,2.9240296E0,1.612097E0,3.515671E0,5.0718792E1,1.4603989E0,2.7059364E0,1.5038965E0,1.420133E0,1.2373921E0,2.2782788E0,1.2039082E1,3.867971E1,1.1623793E0,1.5435572E0,1.1835984E0,1.0946805E0,8.145196E0,3.8938856E0,4.895834E0,3.378388E1],"tree_param":{"num_deleted":"0","num_feature":"3","num_nodes":"27","size_leaf_vector":"1"}},{"base_weights":[1.2776896E-3,1.0528773E-1,-1.1624258E-2,-1.7625359E-1,1.064832E-2,3.0856597E-1,-2.6097888E-2,2.0010366E-1,8.465176E-2,-4.7122288E-1,2.6327882E-2,-1.7691551E-1,4.2607588E-1,-2.3908861E-1,-3.1024462E-2,6.312804E-1,-2.594754E-2,-4.0625468E-2,2.4284206E-1,7.7410065E-2,-8.574566E-2,2.427246E-1,7.698708E-2,-1.091445E-1,3.3491591E-3],"categories":[],"categories_nodes":[],"categories_segments":[],"categories_sizes":[],"default_left":[0,0,0,0,0,0,0,0,0,0,0,0,0,0,0,0,0,0,0,0,0,0,0,0,0],"id":24,"left_children":[1,-1,3,-1,5,7,9,-1,11,13,15,-1,17,-1,19,21,23,-1,-1,-1,-1,-1,-1,-1,-1],"loss_changes":[2.935559E-1,0E0,8.123745E-1,0E0,6.812042E-1,4.9168807E-1,1.3112968E0,0E0,1.4828554E0,8.2381487E-1,1.6210719E0,0E0,9.990668E-1,0E0,3.357399E-1,6.385887E-2,6.017467E-1,0E0,0E0,0E0,0E0,0E0,0E0,0E0,0E0],"parents":[2147483647,0,0,2,2,4,4,5,5,6,6,8,8,9,9,10,10,12,12,14,14,15,15,16,16],"right_children":[2,-1,4,-1,6,8,10,-1,12,14,16,-1,18,-1,20,22,24,-1,-1,-1,-1,-1,-1,-1,-1],"split_conditions":[-1.5001943E0,1.0528773E-1,-1.3629103E0,-1.7625359E-1,-1.1899325E0,5.7661985E-3,-8.9889026E-1,2.0010366E-1,1.9470383E-1,-4.9543673E-1,-7.2316664E-1,-1.7691551E-1,-1.3217251E0,-2.3908861E-1,-1.0389199E0,-8.439766E-1,-5.3646034E-1,-4.0625468E-2,2.4284206E-1,7.7410065E-2,-8.574566E-2,2.427246E-1,7.698708E-2,-1.091445E-1,3.3491591E-3],"split_indices":[1,0,1,0,1,0,1,0,0,2,1,0,1,0,1,1,1,0,0,0,0,0,0,0,0],"split_type":[0,0,0,0,0,0,0,0,0,0,0,0,0,0,0,0,0,0,0,0,0,0,0,0,0],"sum_hessian":[6.316307E1,1.3151996E0,6.184787E1,1.3579508E0,6.048992E1,5.8295975E0,5.4660324E1,1.4805809E0,4.3490167E0,4.917714E0,4.9742607E1,1.2173381E0,3.1316786E0,2.3605142E0,2.5572002E0,3.0755093E0,4.66671E1,1.5331466E0,1.5985318E0,1.1920903E0,1.3651098E0,1.2993476E0,1.7761618E0,3.7473524E0,4.2919746E1],"tree_param":{"num_deleted":"0","num_feature":"3","num_nodes":"25","size_leaf_vector":"1"}},{"base_weights":[2.365926E-3,-8.88294E-2,5.5259615E-2,2.6122645E-2,-2.0205303E-1,6.720869E-1,-4.4931713E-3,-1.07610755E-1,3.2961014E-1,2.4209075E-1,6.573701E-2,2.8293245E-2,-1.2158993E-1,5.9306826E-2,-4.5728052E-1,6.0211605E-1,-4.1999694E-2,-8.01213E-2,2.3056035E-1,3.3722758E-1,-2.1791117E-1,-2.335755E-1,5.9845556E-2,2.4295071E-1,5.175681E-2,2.8199015E-2,-4.9255228E-1,1.8451479E-1,1.2092077E-1,-5.3908724E-2,2.5614712E-1,-1.9256918E-1,4.411321E-2,-2.7793588E-2,2.3686726E-1,-4.6641845E-2,-1.910572E-1,1.3161609E-1,-1.6891828E-3],"categories":[],"categories_nodes":[],"categories_segments":[],"categories_sizes":[],"default_left":[0,0,0,0,0,0,0,0,0,0,0,0,0,0,0,0,0,0,0,0,0,0,0,0,0,0,0,0,0,0,0,0,0,0,0,0,0,0,0],"id":25,"left_children":[1,3,5,7,-1,9,11,13,15,-1,-1,17,-1,19,21,23,-1,25,27,29,31,-1,-1,-1,-1,33,35,-1,37,-1,-1,-1,-1,-1,-1,-1,-1,-1,-1],"loss_changes":[3.0878276E-1,1.5976367E0,1.4952792E0,8.719159E-1,0E0,4.2043805E-2,5.095813E-1,9.060646E-1,9.2248636E-1,0E0,0E0,8.0733174E-1,0E0,9.270261E-1,1.2063452E0,2.4697351E-1,0E0,1.093346E0,4.656868E-1,1.7355857E0,1.0465914E0,0E0,0E0,0E0,0E0,1.9208516E0,1.4809656E-1,0E0,4.534468E-1,0E0,0E0,0E0,0E0,0E0,0E0,0E0,0E0,0E0,0E0],"parents":[2147483647,0,0,1,1,2,2,3,3,5,5,6,6,7,7,8,8,11,11,13,13,14,14,15,15,17,17,18,18,19,19,20,20,25,25,26,26,28,28],"right_children":[2,4,6,8,-1,10,12,14,16,-1,-1,18,-1,20,22,24,-1,26,28,30,32,-1,-1,-1,-1,34,36,-1,38,-1,-1,-1,-1,-1,-1,-1,-1,-1,-1],"split_conditions":[-2.0227748E-1,-3.2752827E-1,-3.6691695E-2,-5.907672E-1,-2.0205303E-1,5.6954914E-1,1.1631161E0,-7.457385E-1,-4.7825378E-1,2.4209075E-1,6.573701E-2,2.0637424E-1,-1.2158993E-1,6.8536764E-1,9.928839E-1,7.033513E-2,-4.1999694E-2,-2.4290904E-2,-5.858826E-1,1.6368827E-1,1.1027112E0,-2.335755E-1,5.9845556E-2,2.4295071E-1,5.175681E-2,-1.0281521E-1,4.4945118E-1,1.8451479E-1,2.1168698E-1,-5.3908724E-2,2.5614712E-1,-1.9256918E-1,4.411321E-2,-2.7793588E-2,2.3686726E-1,-4.6641845E-2,-1.910572E-1,1.3161609E-1,-1.6891828E-3],"split_indices":[0,0,0,0,0,2,1,0,0,0,0,2,0,1,1,1,0,2,1,1,1,0,0,0,0,2,0,0,0,0,0,0,0,0,0,0,0,0,0],"split_type":[0,0,0,0,0,0,0,0,0,0,0,0,0,0,0,0,0,0,0,0,0,0,0,0,0,0,0,0,0,0,0,0,0,0,0,0,0,0,0],"sum_hessian":[6.1996613E1,2.250896E1,3.948765E1,1.960902E1,2.89994E0,2.582345E0,3.6905308E1,1.4059185E1,5.5498357E0,1.3876133E0,1.1947317E0,3.497382E1,1.9314876E0,1.0078518E1,3.980667E0,3.3333735E0,2.2164621E0,2.3162615E1,1.1811207E1,4.9247813E0,5.1537366E0,2.548433E0,1.4322338E0,1.6502924E0,1.683081E0,1.9082453E1,4.080162E0,1.5978957E0,1.021331E1,2.787585E0,2.1371963E0,2.0330296E0,3.120707E0,1.7226538E1,1.8559138E0,1.8458546E0,2.2343075E0,2.206229E0,8.007082E0],"tree_param":{"num_deleted":"0","num_feature":"3","num_nodes":"39","size_leaf_vector":"1"}},{"base_weights":[8.603293E-3,9.287061E-2,-4.6976063E-2,-6.55111E-2,3.6066464E-1,-1.6725983E-1,1.061033E-2,6.361074E-2,-4.450819E-1,2.0861296E-1,1.4969344E-1,-7.463907E-2,2.6813725E-1,-1.364055E-1,3.630747E-1,-2.6066574E-1,9.434269E-2,-1.8533174E-2,1.3150848E-1,4.6560064E-2,-5.7136095E-1,6.2515944E-1,-1.2919058E-1,5.528435E-2,-1.9428064E-1,-7.3796116E-2,2.2073036E-1,1.0731895E-1,-1.8783882E-1,2.4486756E-1,-1.2483585E-1,-2.6424122E-1,1.8908296E-2,2.430052E-1,3.7139364E-2,5.9203677E-2,-1.1488865E-1,1.575908E-1,-4.4091754E-2,-1.6233824E-1,8.023723E-2,1.1250389E-2,2.1700853E-1,-1.07964955E-1,2.7554732E-2],"categories":[],"categories_nodes":[],"categories_segments":[],"categories_sizes":[],"default_left":[0,0,0,0,0,0,0,0,0,0,0,0,0,0,0,0,0,0,0,0,0,0,0,0,0,0,0,0,0,0,0,0,0,0,0,0,0,0,0,0,0,0,0,0,0],"id":26,"left_children":[1,3,5,7,9,-1,11,13,15,-1,17,19,21,23,25,-1,-1,27,-1,29,31,33,35,37,-1,-1,-1,-1,39,41,43,-1,-1,-1,-1,-1,-1,-1,-1,-1,-1,-1,-1,-1,-1],"loss_changes":[2.87741E-1,1.0577832E0,1.0973663E0,8.206934E-1,5.4662967E-1,0E0,7.739443E-1,8.245179E-1,1.6345232E0,0E0,3.444972E-1,1.6269487E0,1.323206E0,8.6718565E-1,1.4190886E0,0E0,0E0,4.071024E-1,0E0,7.883047E-1,1.0938443E0,3.4315395E-1,4.87751E-1,7.513829E-1,0E0,0E0,0E0,0E0,8.4211844E-1,1.0318882E0,6.758319E-1,0E0,0E0,0E0,0E0,0E0,0E0,0E0,0E0,0E0,0E0,0E0,0E0,0E0,0E0],"parents":[2147483647,0,0,1,1,2,2,3,3,4,4,6,6,7,7,8,8,10,10,11,11,12,12,13,13,14,14,17,17,19,19,20,20,21,21,22,22,23,23,28,28,29,29,30,30],"right_children":[2,4,6,8,10,-1,12,14,16,-1,18,20,22,24,26,-1,-1,28,-1,30,32,34,36,38,-1,-1,-1,-1,40,42,44,-1,-1,-1,-1,-1,-1,-1,-1,-1,-1,-1,-1,-1,-1],"split_conditions":[-3.9643064E-1,-3.580192E-1,-2.8934908E-1,-6.132232E-1,4.069933E-1,-1.6725983E-1,3.7727275E-1,-8.9889026E-1,9.738062E-1,2.0861296E-1,1.0417387E0,1.4375435E-1,8.060975E-1,-1.1899325E0,-2.0227748E-1,-2.6066574E-1,9.434269E-2,-1.8133952E-1,1.3150848E-1,6.496738E-1,2.9822665E-1,8.034319E-1,3.7323838E-1,5.7661985E-3,-1.9428064E-1,-7.3796116E-2,2.2073036E-1,1.0731895E-1,-5.3646034E-1,-2.2987512E-1,1.1054568E0,-2.6424122E-1,1.8908296E-2,2.430052E-1,3.7139364E-2,5.9203677E-2,-1.1488865E-1,1.575908E-1,-4.4091754E-2,-1.6233824E-1,8.023723E-2,1.1250389E-2,2.1700853E-1,-1.07964955E-1,2.7554732E-2],"split_indices":[1,2,1,2,0,0,0,1,0,0,0,0,0,1,0,0,0,2,0,1,1,1,2,0,0,0,0,0,1,0,1,0,0,0,0,0,0,0,0,0,0,0,0,0,0],"split_type":[0,0,0,0,0,0,0,0,0,0,0,0,0,0,0,0,0,0,0,0,0,0,0,0,0,0,0,0,0,0,0,0,0,0,0,0,0,0,0,0,0,0,0,0,0],"sum_hessian":[5.950536E1,2.3382597E1,3.612276E1,1.5167459E1,8.215138E0,2.7814002E0,3.3341362E1,1.1938613E1,3.2288458E0,2.2884204E0,5.926718E0,2.5582823E1,7.7585387E0,7.484266E0,4.4543467E0,1.9800932E0,1.2487525E0,4.335768E0,1.59095E0,2.1293514E1,4.289309E0,3.7845185E0,3.97402E0,6.0917997E0,1.3924662E0,1.820017E0,2.6343296E0,1.0001416E0,3.3356266E0,9.673023E0,1.1620491E1,2.6219432E0,1.6673659E0,2.3152308E0,1.4692878E0,1.835094E0,2.138926E0,1.3522178E0,4.739582E0,1.7720675E0,1.563559E0,7.5007687E0,2.1722543E0,5.257068E0,6.3634233E0],"tree_param":{"num_deleted":"0","num_feature":"3","num_nodes":"45","size_leaf_vector":"1"}},{"base_weights":[9.518661E-3,-6.2984847E-3,1.04596905E-1,2.0069525E-2,-4.5954362E-1,2.3842816E-1,-4.649171E-3,-1.698831E-1,-3.8233653E-2,4.6951813E-1,-9.88355E-2,-3.897484E-2,4.4815257E-1,-4.360654E-3,2.0821397E-1,-1.0050617E-1,2.2032039E-1,1.7439461E-1,2.4812462E-2,8.14928E-2,-4.1404065E-2,1.2617205E-1,-1.4336445E-2],"categories":[],"categories_nodes":[],"categories_segments":[],"categories_sizes":[],"default_left":[0,0,0,0,0,0,0,0,0,0,0,0,0,0,0,0,0,0,0,0,0,0,0],"id":27,"left_children":[1,3,-1,5,7,9,11,-1,-1,13,-1,15,17,-1,-1,19,21,-1,-1,-1,-1,-1,-1],"loss_changes":[3.1239256E-1,6.8126947E-1,0E0,2.9311174E-1,3.88965E-2,8.791489E-1,7.880561E-1,0E0,0E0,4.8135644E-1,0E0,7.7210104E-1,1.2582481E-1,0E0,0E0,5.773534E-1,5.209361E-1,0E0,0E0,0E0,0E0,0E0,0E0],"parents":[2147483647,0,0,1,1,3,3,4,4,5,5,6,6,9,9,11,11,12,12,15,15,16,16],"right_children":[2,4,-1,6,8,10,12,-1,-1,14,-1,16,18,-1,-1,20,22,-1,-1,-1,-1,-1,-1],"split_conditions":[1.7228749E0,1.232098E0,1.04596905E-1,-9.622738E-1,-6.024857E-4,8.934619E-1,1.0652338E0,-1.698831E-1,-3.8233653E-2,-5.871188E-2,-9.88355E-2,9.4408566E-1,1.1192193E0,-4.360654E-3,2.0821397E-1,-1.0892768E0,1.137269E0,1.7439461E-1,2.4812462E-2,8.14928E-2,-4.1404065E-2,1.2617205E-1,-1.4336445E-2],"split_indices":[2,2,0,0,0,2,2,0,0,1,0,0,2,0,0,2,0,0,0,0,0,0,0],"split_type":[0,0,0,0,0,0,0,0,0,0,0,0,0,0,0,0,0,0,0,0,0,0,0],"sum_hessian":[5.682729E1,5.52327E1,1.5945868E0,5.309931E1,2.1333878E0,4.5205216E0,4.8578793E1,1.0808595E0,1.0525283E0,3.3361394E0,1.1843822E0,4.6005188E1,2.5736032E0,1.3534793E0,1.9826603E0,3.767679E1,8.328399E0,1.4533242E0,1.120279E0,2.878076E0,3.4798714E1,4.441973E0,3.8864255E0],"tree_param":{"num_deleted":"0","num_feature":"3","num_nodes":"23","size_leaf_vector":"1"}},{"base_weights":[1.3661454E-2,2.8978562E-2,-9.596495E-2,8.6192535E-3,1.4673993E-1,2.7490435E-2,-1.424753E-1,5.890488E-3,1.17629945E-1,4.0022403E-2,-4.2682827E-1,-7.356793E-3,6.076166E-2,3.0873736E-2,-2.1530207E-1],"categories":[],"categories_nodes":[],"categories_segments":[],"categories_sizes":[],"default_left":[0,0,0,0,0,0,0,0,0,0,0,0,0,0,0],"id":28,"left_children":[1,3,-1,5,-1,7,-1,9,-1,11,13,-1,-1,-1,-1],"loss_changes":[2.9957488E-1,5.133432E-1,0E0,5.0509167E-1,0E0,4.1385093E-1,0E0,7.688813E-1,0E0,5.0946367E-1,6.6044664E-1,0E0,0E0,0E0,0E0],"parents":[2147483647,0,0,1,1,3,3,5,5,7,7,9,9,10,10],"right_children":[2,4,-1,6,-1,8,-1,10,-1,12,14,-1,-1,-1,-1],"split_conditions":[2.3327763E0,1.5658263E0,-9.596495E-2,1.232098E0,1.4673993E-1,1.104496E0,-1.424753E-1,1.275689E0,1.17629945E-1,1.6368827E-1,-7.733362E-1,-7.356793E-3,6.076166E-2,3.0873736E-2,-2.1530207E-1],"split_indices":[1,2,0,2,0,2,0,1,0,1,0,0,0,0,0],"split_type":[0,0,0,0,0,0,0,0,0,0,0,0,0,0,0],"sum_hessian":[5.5822983E1,5.424505E1,1.5779334E0,5.292226E1,1.3227882E0,5.1842144E1,1.080116E0,4.9902035E1,1.9401078E0,4.709481E1,2.8072267E0,3.4315266E1,1.2779546E1,1.224005E0,1.5832216E0],"tree_param":{"num_deleted":"0","num_feature":"3","num_nodes":"15","size_leaf_vector":"1"}},{"base_weights":[7.4814907E-3,-6.8847034E-3,1.0726461E-1,2.1171987E-2,-2.9839668E-1,8.311942E-5,1.2328798E-1,-3.823592E-1,-1.314357E-2,-1.945328E-2,1.9976805E-1,-1.4225101E-1,-3.866066E-2,1.0707724E-2,-1.6106716E-1,1.3776347E-1,-2.5631184E-2,-6.9328635E-3,1.533657E-1],"categories":[],"categories_nodes":[],"categories_segments":[],"categories_sizes":[],"default_left":[0,0,0,0,0,0,0,0,0,0,0,0,0,0,0,0,0,0,0],"id":29,"left_children":[1,3,-1,5,7,9,-1,11,-1,13,15,-1,-1,17,-1,-1,-1,-1,-1],"loss_changes":[2.8490454E-1,4.5557055E-1,0E0,4.1952255E-1,8.77476E-2,1.9668096E-1,0E0,2.1441102E-2,0E0,7.225111E-1,3.716874E-1,0E0,0E0,7.629561E-1,0E0,0E0,0E0,0E0,0E0],"parents":[2147483647,0,0,1,1,3,3,4,4,5,5,7,7,9,9,10,10,13,13],"right_children":[2,4,-1,6,8,10,-1,12,-1,14,16,-1,-1,18,-1,-1,-1,-1,-1],"split_conditions":[1.6701156E0,1.137269E0,1.0726461E-1,1.0417387E0,1.481178E0,1.6573387E0,1.2328798E-1,1.08218856E-1,-1.314357E-2,1.3004001E0,1.1192193E0,-1.4225101E-1,-3.866066E-2,1.0652338E0,-1.6106716E-1,1.3776347E-1,-2.5631184E-2,-6.9328635E-3,1.533657E-1],"split_indices":[0,0,0,0,0,1,0,2,0,1,2,0,0,2,0,0,0,0,0],"split_type":[0,0,0,0,0,0,0,0,0,0,0,0,0,0,0,0,0,0,0],"sum_hessian":[5.5161346E1,5.392854E1,1.2328074E0,5.003981E1,3.8887305E0,4.842032E1,1.6194925E0,2.5468736E0,1.3418568E0,4.4927376E1,3.4929402E0,1.2306014E0,1.3162721E0,4.3378204E1,1.5491748E0,1.5095947E0,1.9833455E0,4.1526287E1,1.8519144E0],"tree_param":{"num_deleted":"0","num_feature":"3","num_nodes":"19","size_leaf_vector":"1"}},{"base_weights":[7.84373E-3,3.87295E-2,-1.4104797E-1,4.198023E-3,1.5921256E-1,-2.512023E-1,8.8452354E-2,3.7507486E-1,-2.8529005E-2,-1.5782945E-1,-9.166155E-2,-1.1423127E-3,1.786088E-1,-3.4517616E-1,2.3607854E-2,2.8807786E-1,-4.167995E-1,5.0753914E-2,-2.1519537E-1,-2.6429435E-2,1.7924076E-1,1.2233805E-1,1.4093646E-2,7.541375E-3,-1.8920858E-1,-1.7534545E-1,1.5565303E-1,2.907634E-2,-5.6712568E-2],"categories":[],"categories_nodes":[],"categories_segments":[],"categories_sizes":[],"default_left":[0,0,0,0,0,0,0,0,0,0,0,0,0,0,0,0,0,0,0,0,0,0,0,0,0,0,0,0,0],"id":30,"left_children":[1,3,5,7,-1,9,-1,11,13,-1,15,-1,-1,17,19,21,23,25,-1,27,-1,-1,-1,-1,-1,-1,-1,-1,-1],"loss_changes":[2.6106814E-1,7.931574E-1,5.429114E-1,5.539315E-1,0E0,3.173129E-1,0E0,3.110634E-1,7.024492E-1,0E0,9.207453E-1,0E0,0E0,9.218842E-1,1.0795535E0,8.424771E-2,3.847335E-1,1.446767E0,0E0,7.210204E-1,0E0,0E0,0E0,0E0,0E0,0E0,0E0,0E0,0E0],"parents":[2147483647,0,0,1,1,2,2,3,3,5,5,7,7,8,8,10,10,13,13,14,14,15,15,16,16,17,17,19,19],"right_children":[2,4,6,8,-1,10,-1,12,14,-1,16,-1,-1,18,20,22,24,26,-1,28,-1,-1,-1,-1,-1,-1,-1,-1,-1],"split_conditions":[8.934619E-1,7.364133E-1,1.7228749E0,-9.622738E-1,1.5921256E-1,-7.096493E-1,8.8452354E-2,-5.871188E-2,-6.841746E-1,-1.5782945E-1,1.4375435E-1,-1.1423127E-3,1.786088E-1,5.920145E-1,9.928839E-1,1.275689E0,3.8608843E-1,1.6368827E-1,-2.1519537E-1,-4.0741336E-1,1.7924076E-1,1.2233805E-1,1.4093646E-2,7.541375E-3,-1.8920858E-1,-1.7534545E-1,1.5565303E-1,2.907634E-2,-5.6712568E-2],"split_indices":[2,2,2,0,0,0,0,1,0,0,0,0,0,1,1,1,1,1,0,1,0,0,0,0,0,0,0,0,0],"split_type":[0,0,0,0,0,0,0,0,0,0,0,0,0,0,0,0,0,0,0,0,0,0,0,0,0,0,0,0,0],"sum_hessian":[5.4582893E1,4.581832E1,8.764572E0,4.3755688E1,2.062632E0,7.334707E0,1.429865E0,2.6997905E0,4.10559E1,1.8498143E0,5.4848924E0,1.3538903E0,1.3459E0,5.0096707E0,3.604623E1,2.5825865E0,2.902306E0,2.8456914E0,2.163979E0,3.4032722E1,2.013506E0,1.2637087E0,1.3188779E0,1.2343822E0,1.6679238E0,1.1017964E0,1.743895E0,1.9582376E1,1.4450346E1],"tree_param":{"num_deleted":"0","num_feature":"3","num_nodes":"29","size_leaf_vector":"1"}},{"base_weights":[7.7400287E-3,-4.49443E-3,9.317148E-2,2.3592066E-2,-2.6927292E-1,3.933135E-3,1.3581882E-1,-6.848106E-2,-1.5363675E-1,-1.07089706E-1,5.2634228E-2,-1.04348734E-1,6.424238E-2,3.1928042E-1,-2.2085163E-1,-2.9496914E-2,3.328426E-1,2.5936965E-2,1.2928309E-1,-4.2229732E-3,-1.9642484E-1,1.9174162E-1,-3.1810895E-2,-1.13046005E-1,1.4910819E-1],"categories":[],"categories_nodes":[],"categories_segments":[],"categories_sizes":[],"default_left":[0,0,0,0,0,0,0,0,0,0,0,0,0,0,0,0,0,0,0,0,0,0,0,0,0],"id":31,"left_children":[1,3,-1,5,7,9,-1,11,-1,13,15,-1,-1,17,19,21,23,-1,-1,-1,-1,-1,-1,-1,-1],"loss_changes":[2.030008E-1,4.026346E-1,0E0,4.1241512E-1,2.1805134E-1,2.6492363E-1,0E0,3.8995987E-1,0E0,7.9571944E-1,7.923638E-1,0E0,0E0,5.5239826E-2,1.1027057E0,1.4605217E0,1.0948191E0,0E0,0E0,0E0,0E0,0E0,0E0,0E0,0E0],"parents":[2147483647,0,0,1,1,3,3,4,4,5,5,7,7,9,9,10,10,13,13,14,14,15,15,16,16],"right_children":[2,4,-1,6,8,10,-1,12,-1,14,16,-1,-1,18,20,22,24,-1,-1,-1,-1,-1,-1,-1,-1],"split_conditions":[1.6701156E0,1.0926883E0,9.317148E-2,1.0417387E0,8.934619E-1,-5.3646034E-1,1.3581882E-1,-4.7089788E-1,-1.5363675E-1,-1.0892768E0,3.9637882E-1,-1.04348734E-1,6.424238E-2,-1.063631E0,-8.439766E-1,-4.4585288E-1,-4.4585288E-1,2.5936965E-2,1.2928309E-1,-4.2229732E-3,-1.9642484E-1,1.9174162E-1,-3.1810895E-2,-1.13046005E-1,1.4910819E-1],"split_indices":[0,0,0,0,2,1,0,2,0,2,0,0,0,1,1,1,1,0,0,0,0,0,0,0,0],"split_type":[0,0,0,0,0,0,0,0,0,0,0,0,0,0,0,0,0,0,0,0,0,0,0,0,0],"sum_hessian":[5.3414585E1,5.2287327E1,1.1272604E0,4.809638E1,4.1909456E0,4.695454E1,1.1418389E0,2.995888E0,1.1950579E0,1.3951252E1,3.300329E1,1.3906391E0,1.6052488E0,2.5578985E0,1.1393354E1,2.621439E1,6.7888994E0,1.4042411E0,1.1536574E0,8.415411E0,2.9779425E0,1.9375772E0,2.4276812E1,1.0322148E0,5.756685E0],"tree_param":{"num_deleted":"0","num_feature":"3","num_nodes":"25","size_leaf_vector":"1"}},{"base_weights":[9.091247E-3,9.286923E-2,-3.6266195E-3,-1.4979194E-1,1.673786E-2,2.05752E-1,-2.458096E-2,-2.7248498E-2,4.0762857E-1,-2.6130763E-1,3.880438E-2,8.7104484E-2,-3.3145797E-1,2.1376657E-1,1.0950677E-1,2.1465883E-1,-6.166982E-1,2.0654999E-1,-8.844958E-3,-3.0342285E-2,-1.1800717E-1,-4.258489E-2,1.0787631E-1,1.5095757E-1,-6.268584E-2,-2.3543786E-1,-1.5258773E-2,1.25039E-1,-1.172539E-2],"categories":[],"categories_nodes":[],"categories_segments":[],"categories_sizes":[],"default_left":[0,0,0,0,0,0,0,0,0,0,0,0,0,0,0,0,0,0,0,0,0,0,0,0,0,0,0,0,0],"id":32,"left_children":[1,-1,3,-1,5,7,9,11,13,15,17,-1,19,-1,21,23,25,-1,27,-1,-1,-1,-1,-1,-1,-1,-1,-1,-1],"loss_changes":[2.046045E-1,0E0,5.340109E-1,0E0,4.0325844E-1,4.4635102E-1,6.513622E-1,6.0180986E-1,3.7834734E-1,1.6809747E0,1.0765704E0,0E0,4.976034E-3,0E0,2.8497922E-1,6.741509E-1,4.8316884E-1,0E0,4.4366154E-1,0E0,0E0,0E0,0E0,0E0,0E0,0E0,0E0,0E0,0E0],"parents":[2147483647,0,0,2,2,4,4,5,5,6,6,7,7,8,8,9,9,10,10,12,12,14,14,15,15,16,16,18,18],"right_children":[2,-1,4,-1,6,8,10,12,14,16,18,-1,20,-1,22,24,26,-1,28,-1,-1,-1,-1,-1,-1,-1,-1,-1,-1],"split_conditions":[-1.5001943E0,9.286923E-2,-1.3629103E0,-1.4979194E-1,-6.966553E-1,-9.813059E-1,-3.5311142E-1,5.2469883E-2,-1.2393547E0,-1.555738E-1,-1.0279373E0,8.7104484E-2,3.7939566E-1,2.1376657E-1,-2.0227748E-1,-5.297911E-1,9.738062E-1,2.0654999E-1,-3.1384927E-1,-3.0342285E-2,-1.1800717E-1,-4.258489E-2,1.0787631E-1,1.5095757E-1,-6.268584E-2,-2.3543786E-1,-1.5258773E-2,1.25039E-1,-1.172539E-2],"split_indices":[1,0,1,0,2,2,2,0,1,0,1,0,0,0,0,2,0,0,2,0,0,0,0,0,0,0,0,0,0],"split_type":[0,0,0,0,0,0,0,0,0,0,0,0,0,0,0,0,0,0,0,0,0,0,0,0,0,0,0,0,0],"sum_hessian":[5.2248356E1,1.173858E0,5.1074497E1,1.087433E0,4.9987064E1,8.253154E0,4.1733913E1,4.232797E0,4.0203567E0,8.154942E0,3.357897E1,2.0931249E0,2.139672E0,1.3002646E0,2.7200918E0,3.655374E0,4.499567E0,1.3754529E0,3.2203518E1,1.0111835E0,1.1284885E0,1.5719156E0,1.1481763E0,2.0626125E0,1.5927614E0,3.17068E0,1.3288872E0,1.2882015E0,3.0915318E1],"tree_param":{"num_deleted":"0","num_feature":"3","num_nodes":"29","size_leaf_vector":"1"}},{"base_weights":[1.2603772E-2,3.9797203E-4,8.240242E-2,2.128516E-2,-1.160096E-1,-2.9824229E-2,1.1553135E-1,1.6010923E-2,-1.8803337E-1,4.1328886E-1,-1.2175143E-2,-3.221659E-2,1.424772E-1,2.677129E-2,5.1615506E-1,2.8107375E-1,-1.6081691E-1,1.7994234E-2,-7.02654E-2,3.2822654E-2,2.0070292E-1,-5.580881E-2,1.4470552E-1,-9.134798E-2,6.696924E-2],"categories":[],"categories_nodes":[],"categories_segments":[],"categories_sizes":[],"default_left":[0,0,0,0,0,0,0,0,0,0,0,0,0,0,0,0,0,0,0,0,0,0,0,0,0],"id":33,"left_children":[1,3,-1,5,-1,7,9,11,-1,13,15,17,-1,-1,19,21,23,-1,-1,-1,-1,-1,-1,-1,-1],"loss_changes":[1.6692927E-1,4.197513E-1,0E0,2.4062358E-1,0E0,9.053195E-1,6.7118037E-1,7.0942307E-1,0E0,1.3017333E-1,6.219507E-1,5.600393E-1,0E0,0E0,1.6331077E-1,5.4239845E-1,5.8757854E-1,0E0,0E0,0E0,0E0,0E0,0E0,0E0,0E0],"parents":[2147483647,0,0,1,1,3,3,5,5,6,6,7,7,9,9,10,10,11,11,14,14,15,15,16,16],"right_children":[2,4,-1,6,-1,8,10,12,-1,14,16,18,-1,-1,20,22,24,-1,-1,-1,-1,-1,-1,-1,-1],"split_conditions":[1.7228749E0,1.232098E0,8.240242E-2,1.6368827E-1,-1.160096E-1,1.0053761E-1,4.8218727E-1,3.4641273E-2,-1.8803337E-1,2.9822665E-1,3.5360733E-1,-3.9643064E-1,1.424772E-1,2.677129E-2,-6.2048775E-1,-3.7765026E-1,1.6573387E0,1.7994234E-2,-7.02654E-2,3.2822654E-2,2.0070292E-1,-5.580881E-2,1.4470552E-1,-9.134798E-2,6.696924E-2],"split_indices":[2,2,0,1,0,1,1,1,0,1,2,1,0,0,0,2,1,0,0,0,0,0,0,0,0],"split_type":[0,0,0,0,0,0,0,0,0,0,0,0,0,0,0,0,0,0,0,0,0,0,0,0,0],"sum_hessian":[5.121937E1,4.989697E1,1.322403E0,4.823907E1,1.6578988E0,3.172063E1,1.651844E1,3.036252E1,1.3581089E0,4.286919E0,1.2231521E1,2.8316515E1,2.0460057E0,1.4829164E0,2.8040025E0,3.8147058E0,8.416815E0,1.9925291E1,8.391223E0,1.2345734E0,1.5694292E0,1.1715845E0,2.6431215E0,6.276032E0,2.140783E0],"tree_param":{"num_deleted":"0","num_feature":"3","num_nodes":"25","size_leaf_vector":"1"}},{"base_weights":[1.2838657E-2,-1.0955942E-1,4.700625E-2,6.095461E-2,-2.1207902E-1,1.8299486E-1,1.6482435E-2,-1.6031854E-1,1.7870319E-1,1.2538134E-1,-1.10592395E-2,8.370664E-2,-2.9109347E-1,-3.6377096E-1,3.3449978E-2,9.121557E-2,-4.5573503E-1,-2.3445259E-1,1.0732312E-1,3.6200696E-1,-2.0496853E-2,-4.2235155E-2,-2.3302348E-1,2.8340459E-2,1.8077311E-1,-1.7875893E-1,5.638192E-3],"categories":[],"categories_nodes":[],"categories_segments":[],"categories_sizes":[],"default_left":[0,0,0,0,0,0,0,0,0,0,0,0,0,0,0,0,0,0,0,0,0,0,0,0,0,0,0],"id":34,"left_children":[1,3,5,7,-1,-1,9,11,-1,-1,13,-1,15,17,19,-1,21,-1,-1,23,25,-1,-1,-1,-1,-1,-1],"loss_changes":[2.2005522E-1,1.2159716E0,6.923145E-1,1.2643018E0,0E0,0E0,4.446654E-1,5.2793103E-1,0E0,0E0,6.121456E-1,0E0,7.736069E-1,1.5956802E0,6.251436E-1,0E0,4.443587E-1,0E0,0E0,2.628805E-1,7.093434E-1,0E0,0E0,0E0,0E0,0E0,0E0],"parents":[2147483647,0,0,1,1,2,2,3,3,6,6,7,7,10,10,12,12,13,13,14,14,16,16,19,19,20,20],"right_children":[2,4,6,8,-1,-1,10,12,-1,-1,14,-1,16,18,20,-1,22,-1,-1,24,26,-1,-1,-1,-1,-1,-1],"split_conditions":[-8.9889026E-1,-1.0279373E0,-8.439766E-1,-5.0525224E-1,-2.1207902E-1,1.8299486E-1,-1.040199E0,5.7661985E-3,1.7870319E-1,1.2538134E-1,-5.3646034E-1,8.370664E-2,-1.5001943E0,8.931362E-1,-5.1016E-1,9.121557E-2,-9.0768933E-1,-2.3445259E-1,1.0732312E-1,-1.9599593E-1,-4.365435E-1,-4.2235155E-2,-2.3302348E-1,2.8340459E-2,1.8077311E-1,-1.7875893E-1,5.638192E-3],"split_indices":[1,1,1,2,0,0,2,0,0,0,1,0,1,0,2,0,2,0,0,1,2,0,0,0,0,0,0],"split_type":[0,0,0,0,0,0,0,0,0,0,0,0,0,0,0,0,0,0,0,0,0,0,0,0,0,0,0],"sum_hessian":[5.0387566E1,1.0514629E1,3.9872936E1,8.878347E0,1.636282E0,1.0743296E0,3.8798607E1,6.7749815E0,2.1033661E0,1.580856E0,3.721775E1,1.2940366E0,5.480945E0,3.3665679E0,3.385118E1,1.0042039E0,4.476741E0,2.079464E0,1.2871039E0,3.9688594E0,2.9882322E1,2.9858303E0,1.4909108E0,2.538486E0,1.4303735E0,1.0046722E0,2.887765E1],"tree_param":{"num_deleted":"0","num_feature":"3","num_nodes":"27","size_leaf_vector":"1"}},{"base_weights":[9.767156E-3,-1.6922566E-1,3.4168683E-2,-4.6916208E-1,1.3716255E-1,5.208253E-1,-1.1145883E-2,-2.6978467E-2,-1.9102131E-1,-2.0281138E-2,9.9206924E-2,2.4582498E-2,2.140521E-1,-3.025231E-1,2.4132447E-2,-2.1750636E-2,-1.8116692E-1,1.5929092E-1,-3.9485935E-3,-1.1540894E-1,1.26566E-1,2.5507465E-2,-1.21603146E-1,-4.8303585E-3,1.09637834E-1],"categories":[],"categories_nodes":[],"categories_segments":[],"categories_sizes":[],"default_left":[0,0,0,0,0,0,0,0,0,0,0,0,0,0,0,0,0,0,0,0,0,0,0,0,0],"id":35,"left_children":[1,3,5,7,9,11,13,-1,-1,-1,-1,-1,-1,15,17,19,-1,-1,21,-1,-1,23,-1,-1,-1],"loss_changes":[2.2409423E-1,6.308564E-1,9.941764E-1,1.550799E-1,1.7386365E-1,2.6615453E-1,4.3882594E-1,0E0,0E0,0E0,0E0,0E0,0E0,3.7674415E-1,5.482319E-1,7.13408E-1,0E0,0E0,4.5195475E-1,0E0,0E0,5.11394E-1,0E0,0E0,0E0],"parents":[2147483647,0,0,1,1,2,2,3,3,4,4,5,5,6,6,13,13,14,14,15,15,18,18,21,21],"right_children":[2,4,6,8,10,12,14,-1,-1,-1,-1,-1,-1,16,18,20,-1,-1,22,-1,-1,24,-1,-1,-1],"split_conditions":[-9.813059E-1,-1.2805399E0,-1.2393547E0,-1.1383544E0,-1.1727089E0,-1.3409449E0,-8.9889026E-1,-2.6978467E-2,-1.9102131E-1,-2.0281138E-2,9.9206924E-2,2.4582498E-2,2.140521E-1,-1.0279373E0,-8.439766E-1,-1.1240361E0,-1.8116692E-1,1.5929092E-1,1.4302285E0,-1.1540894E-1,1.26566E-1,9.355941E-1,-1.21603146E-1,-4.8303585E-3,1.09637834E-1],"split_indices":[2,1,1,2,2,1,1,0,0,0,0,0,0,1,1,1,0,0,0,0,0,0,0,0,0],"split_type":[0,0,0,0,0,0,0,0,0,0,0,0,0,0,0,0,0,0,0,0,0,0,0,0,0],"sum_hessian":[4.8983303E1,5.164565E0,4.381874E1,2.3413002E0,2.8232648E0,2.8387184E0,4.0980022E1,1.188437E0,1.1528634E0,1.6879559E0,1.1353091E0,1.3008825E0,1.537836E0,3.6076593E0,3.737236E1,2.422695E0,1.1849644E0,1.021775E0,3.6350586E1,1.4056066E0,1.0170883E0,3.473783E1,1.6127543E0,3.1798473E1,2.9393597E0],"tree_param":{"num_deleted":"0","num_feature":"3","num_nodes":"25","size_leaf_vector":"1"}},{"base_weights":[8.494488E-3,-7.587528E-2,5.8352605E-2,9.0371326E-2,-5.146616E-1,3.170769E-1,-2.0068431E-2,-4.1350104E-2,5.049183E-1,-6.0450986E-2,-1.9020239E-1,5.8055854E-1,-1.1448961E-1,-8.247074E-2,3.4343413E-1,1.3426225E-1,-3.8728923E-1,2.038052E-1,3.4516796E-2,-5.1928513E-2,2.332544E-1,-4.5500866E-1,5.6500405E-2,1.8553099E-1,-6.331423E-2,3.5136142E-1,-1.04037024E-1,-2.1359472E-1,6.549976E-2,1.6221749E-2,-2.1135524E-1,-8.596371E-2,2.959307E-1,-1.4281169E-2,2.1362443E-1,-1.428636E-1,5.8264248E-2,1.7974693E-2,-1.8761559E-1,1.936869E-1,2.735742E-2],"categories":[],"categories_nodes":[],"categories_segments":[],"categories_sizes":[],"default_left":[0,0,0,0,0,0,0,0,0,0,0,0,0,0,0,0,0,0,0,0,0,0,0,0,0,0,0,0,0,0,0,0,0,0,0,0,0,0,0,0,0],"id":36,"left_children":[1,3,5,7,9,11,13,15,17,-1,-1,19,-1,21,23,25,27,-1,-1,-1,-1,29,31,-1,-1,33,35,-1,-1,-1,-1,37,39,-1,-1,-1,-1,-1,-1,-1,-1],"loss_changes":[2.1106954E-1,1.4092742E0,6.4431596E-1,8.0713487E-1,6.967759E-2,1.5789387E0,5.9698355E-1,7.719803E-1,1.630987E-1,0E0,0E0,9.882088E-1,0E0,1.1751872E0,7.201342E-1,4.816488E-1,9.90762E-1,0E0,0E0,0E0,0E0,8.183396E-1,6.0736084E-1,0E0,0E0,7.14675E-1,6.333979E-1,0E0,0E0,0E0,0E0,9.401097E-1,4.1288853E-1,0E0,0E0,0E0,0E0,0E0,0E0,0E0,0E0],"parents":[2147483647,0,0,1,1,2,2,3,3,4,4,5,5,6,6,7,7,8,8,11,11,13,13,14,14,15,15,16,16,21,21,22,22,25,25,26,26,31,31,32,32],"right_children":[2,4,6,8,10,12,14,16,18,-1,-1,20,-1,22,24,26,28,-1,-1,-1,-1,30,32,-1,-1,34,36,-1,-1,-1,-1,38,40,-1,-1,-1,-1,-1,-1,-1,-1],"split_conditions":[-2.0227748E-1,-4.7825378E-1,7.7944614E-2,-5.907672E-1,-3.2752827E-1,8.967851E-1,6.496738E-1,-7.457385E-1,7.033513E-2,-6.0450986E-2,-1.9020239E-1,-8.9889026E-1,-1.1448961E-1,3.7727275E-1,1.1631161E0,6.8536764E-1,9.928839E-1,2.038052E-1,3.4516796E-2,-5.1928513E-2,2.332544E-1,-5.117492E-1,1.4257324E-1,1.8553099E-1,-6.331423E-2,1.6368827E-1,1.1027112E0,-2.1359472E-1,6.549976E-2,1.6221749E-2,-2.1135524E-1,-2.4290904E-2,7.657625E-1,-1.4281169E-2,2.1362443E-1,-1.428636E-1,5.8264248E-2,1.7974693E-2,-1.8761559E-1,1.936869E-1,2.735742E-2],"split_indices":[0,0,0,0,0,1,1,0,1,0,0,1,0,0,1,1,1,0,0,0,0,1,2,0,0,1,1,0,0,0,0,2,0,0,0,0,0,0,0,0,0],"split_type":[0,0,0,0,0,0,0,0,0,0,0,0,0,0,0,0,0,0,0,0,0,0,0,0,0,0,0,0,0,0,0,0,0,0,0,0,0,0,0,0,0],"sum_hessian":[4.8124245E1,1.7681623E1,3.0442621E1,1.33990555E1,4.2825685E0,6.373174E0,2.4069447E1,1.0851323E1,2.5477328E0,1.923582E0,2.3589864E0,4.750768E0,1.6224065E0,2.120271E1,2.8667371E0,7.6034184E0,3.2479045E0,1.2471795E0,1.3005533E0,1.009409E0,3.741359E0,5.1426797E0,1.606003E1,1.8392129E0,1.0275242E0,3.7304187E0,3.8729997E0,2.0000122E0,1.2478924E0,1.9491161E0,3.1935635E0,1.0470759E1,5.5892706E0,2.1834733E0,1.5469452E0,1.4575297E0,2.41547E0,8.941561E0,1.5291994E0,1.2687948E0,4.3204756E0],"tree_param":{"num_deleted":"0","num_feature":"3","num_nodes":"41","size_leaf_vector":"1"}},{"base_weights":[6.168872E-3,-7.297063E-2,6.757334E-2,5.6594808E-2,-2.4616909E-1,1.2585202E-1,2.3617124E-2,-1.6955699E-1,2.1491335E-1,-3.4316018E-1,6.1289586E-2,-2.4159037E-1,6.625017E-2,-4.0972996E-1,8.76005E-2,-1.794129E-2,4.994874E-1,-6.583975E-2,-2.299461E-1,-1.4041875E-1,5.0088145E-2,1.367484E-1,2.3216965E-2,-1.6747722E-2,-1.7571755E-1,-2.0545132E-2,7.287519E-2,2.1769626E-1,-1.547822E-1,4.3896608E-2,1.9090141E-1,-1.17384754E-1,2.0423083E-1,8.34352E-2,-2.5461057E-1,3.577587E-3,1.346912E-1,1.7355508E-1,-5.5728E-2,-4.5102616E-3,1.0352137E-1,-1.5470168E-3,-1.1260417E-1],"categories":[],"categories_nodes":[],"categories_segments":[],"categories_sizes":[],"default_left":[0,0,0,0,0,0,0,0,0,0,0,0,0,0,0,0,0,0,0,0,0,0,0,0,0,0,0,0,0,0,0,0,0,0,0,0,0,0,0,0,0,0,0],"id":37,"left_children":[1,3,5,7,9,-1,11,13,15,17,-1,19,21,23,25,27,29,31,-1,-1,-1,-1,33,-1,-1,-1,-1,35,-1,-1,-1,-1,37,39,41,-1,-1,-1,-1,-1,-1,-1,-1],"loss_changes":[2.3167484E-1,4.821921E-1,4.0457165E-1,4.9294278E-1,4.6842688E-1,0E0,2.97289E-1,3.9468455E-1,5.351535E-1,8.740004E-1,0E0,4.1684228E-1,3.618847E-1,1.6536653E-1,1.04618795E-1,7.380831E-1,8.127791E-2,5.942419E-1,0E0,0E0,0E0,0E0,3.7359852E-1,0E0,0E0,0E0,0E0,2.0037888E-1,0E0,0E0,0E0,0E0,6.70174E-1,4.7053158E-1,1.1849305E-1,0E0,0E0,0E0,0E0,0E0,0E0,0E0,0E0],"parents":[2147483647,0,0,1,1,2,2,3,3,4,4,6,6,7,7,8,8,9,9,11,11,12,12,13,13,14,14,15,15,16,16,17,17,22,22,27,27,32,32,33,33,34,34],"right_children":[2,4,6,8,10,-1,12,14,16,18,-1,20,22,24,26,28,30,32,-1,-1,-1,-1,34,-1,-1,-1,-1,36,-1,-1,-1,-1,38,40,42,-1,-1,-1,-1,-1,-1,-1,-1],"split_conditions":[-1.2244628E-1,-5.445144E-1,-2.4290904E-2,-9.813059E-1,3.476489E-1,1.2585202E-1,1.2784994E-1,-1.2805399E0,1.1615672E-1,-2.3443545E-1,6.1289586E-2,3.4641273E-2,-5.858826E-1,-1.1383544E0,-1.1727089E0,-1.555738E-1,-8.0953395E-1,-3.580192E-1,-2.299461E-1,-1.4041875E-1,5.0088145E-2,1.367484E-1,8.6978436E-1,-1.6747722E-2,-1.7571755E-1,-2.0545132E-2,7.287519E-2,-3.3602566E-1,-1.547822E-1,4.3896608E-2,1.9090141E-1,-1.17384754E-1,-2.942182E-1,3.0509436E-1,7.167822E-1,3.577587E-3,1.346912E-1,1.7355508E-1,-5.5728E-2,-4.5102616E-3,1.0352137E-1,-1.5470168E-3,-1.1260417E-1],"split_indices":[2,2,2,2,1,0,2,1,0,1,0,1,1,2,2,0,2,2,0,0,0,0,0,0,0,0,0,1,0,0,0,0,2,0,2,0,0,0,0,0,0,0,0],"split_type":[0,0,0,0,0,0,0,0,0,0,0,0,0,0,0,0,0,0,0,0,0,0,0,0,0,0,0,0,0,0,0,0,0,0,0,0,0,0,0,0,0,0,0],"sum_hessian":[4.565975E1,1.9866713E1,2.579304E1,1.1750039E1,8.116673E0,1.9152157E0,2.3877825E1,4.8092413E0,6.9407983E0,6.874685E0,1.2419884E0,2.6605558E0,2.1217268E1,2.1799588E0,2.6292825E0,4.332585E0,2.6082132E0,4.8518066E0,2.0228784E0,1.6179898E0,1.0425661E0,1.1563555E0,2.0060913E1,1.1615094E0,1.0184495E0,1.5902472E0,1.0390352E0,3.3230712E0,1.0095139E0,1.3063006E0,1.3019125E0,1.9967954E0,2.855011E0,1.7062382E1,2.99853E0,2.3149562E0,1.0081149E0,1.2101662E0,1.6448449E0,1.3081547E1,3.9808362E0,1.3180399E0,1.68049E0],"tree_param":{"num_deleted":"0","num_feature":"3","num_nodes":"43","size_leaf_vector":"1"}},{"base_weights":[5.2997344E-3,-9.127585E-3,7.856716E-2,1.3702131E-2,-1.2548414E-1,2.2530675E-1,-1.23480875E-2,-5.9281755E-2,4.80973E-1,-3.0035582E-1,3.0369716E-2,3.786158E-2,1.7715485E-1,2.2101637E-2,-1.7266545E-1,3.5626557E-1,-2.1720387E-2,-2.1338694E-2,2.2055307E-1,-1.24934144E-1,1.5293684E-2],"categories":[],"categories_nodes":[],"categories_segments":[],"categories_sizes":[],"default_left":[0,0,0,0,0,0,0,0,0,0,0,0,0,0,0,0,0,0,0,0,0],"id":38,"left_children":[1,3,-1,5,-1,7,9,-1,11,13,15,-1,-1,-1,-1,17,19,-1,-1,-1,-1],"loss_changes":[1.6975063E-1,4.1456822E-1,0E0,2.3663731E-1,0E0,6.034657E-1,4.85517E-1,0E0,5.0679266E-2,5.6665707E-1,5.9558856E-1,0E0,0E0,0E0,0E0,8.3441913E-1,9.0504473E-1,0E0,0E0,0E0,0E0],"parents":[2147483647,0,0,1,1,3,3,5,5,6,6,8,8,9,9,10,10,15,15,16,16],"right_children":[2,4,-1,6,-1,8,10,-1,12,14,16,-1,-1,-1,-1,18,20,-1,-1,-1,-1],"split_conditions":[1.6149039E0,1.232098E0,7.856716E-2,-8.6249775E-1,-1.2548414E-1,-1.5333325E0,-6.841746E-1,-5.9281755E-2,-2.9209477E-1,5.920145E-1,-4.7825378E-1,3.786158E-2,1.7715485E-1,2.2101637E-2,-1.7266545E-1,1.6711208E-1,-2.0227748E-1,-2.1338694E-2,2.2055307E-1,-1.24934144E-1,1.5293684E-2],"split_indices":[2,2,0,0,0,0,0,0,1,1,0,0,0,0,0,2,0,0,0,0,0],"split_type":[0,0,0,0,0,0,0,0,0,0,0,0,0,0,0,0,0,0,0,0,0],"sum_hessian":[4.4209064E1,4.2768734E1,1.4403285E0,4.1423897E1,1.3448398E0,3.7021966E0,3.77217E1,1.480428E0,2.2217686E0,4.0932736E0,3.3628426E1,1.031912E0,1.1898566E0,2.0454812E0,2.0477924E0,3.8295937E0,2.9798832E1,2.181379E0,1.6482146E0,3.899242E0,2.589959E1],"tree_param":{"num_deleted":"0","num_feature":"3","num_nodes":"21","size_leaf_vector":"1"}},{"base_weights":[4.742231E-3,-6.058616E-2,5.86666E-2,4.878667E-2,-1.9880131E-1,1.3480936E-1,2.2235518E-2,-1.4858097E-1,1.8755935E-1,-2.7957833E-1,5.6240883E-2,1.5867737E-1,-5.0243504E-2,3.650923E-2,-3.4428024E-1,1.4577937E-1,1.5480761E-2,-4.0966865E-2,-2.1365705E-1,-6.0511567E-2,1.5831256E-1,-1.2675734E-1,2.9573085E-2,-1.924093E-1,5.7703134E-2,-1.0706376E-1,2.7333394E-1,-9.868483E-2,1.5975796E-1,1.15220115E-1,-2.4795434E-1,-3.1498292E-1,1.3586636E-1,2.2102143E-3,1.1739284E-1,1.5183E-1,-3.3302788E-2,-1.8196157E-1,3.7239205E-2,5.806183E-3,-1.4611454E-1,1.144636E-1,4.902131E-4],"categories":[],"categories_nodes":[],"categories_segments":[],"categories_sizes":[],"default_left":[0,0,0,0,0,0,0,0,0,0,0,0,0,0,0,0,0,0,0,0,0,0,0,0,0,0,0,0,0,0,0,0,0,0,0,0,0,0,0,0,0,0,0],"id":39,"left_children":[1,3,5,7,9,-1,11,13,15,17,-1,19,21,-1,23,-1,25,27,-1,29,-1,-1,31,-1,-1,-1,33,-1,35,-1,37,39,41,-1,-1,-1,-1,-1,-1,-1,-1,-1,-1],"loss_changes":[1.5988682E-1,3.2048553E-1,3.4326544E-1,3.642027E-1,3.4193274E-1,0E0,2.4287836E-1,3.3956018E-1,3.853686E-1,8.044298E-1,0E0,7.179557E-1,4.9602398E-1,0E0,6.8537617E-1,0E0,6.6270053E-1,4.1474926E-1,0E0,6.133934E-1,0E0,0E0,5.677764E-1,0E0,0E0,0E0,1.2401092E-1,0E0,4.6555904E-1,0E0,7.399467E-1,2.2117805E-1,3.83686E-1,0E0,0E0,0E0,0E0,0E0,0E0,0E0,0E0,0E0,0E0],"parents":[2147483647,0,0,1,1,2,2,3,3,4,4,6,6,7,7,8,8,9,9,11,11,12,12,14,14,16,16,17,17,19,19,22,22,26,26,28,28,30,30,31,31,32,32],"right_children":[2,4,6,8,10,-1,12,14,16,18,-1,20,22,-1,24,-1,26,28,-1,30,-1,-1,32,-1,-1,-1,34,-1,36,-1,38,40,42,-1,-1,-1,-1,-1,-1,-1,-1,-1,-1],"split_conditions":[-6.355306E-2,-5.445144E-1,-1.4475366E-2,-9.813059E-1,3.476489E-1,1.3480936E-1,-3.7847775E-1,-1.2659565E0,-1.2393547E0,-2.3443545E-1,5.6240883E-2,-6.841746E-1,-9.825564E-2,3.650923E-2,-9.894977E-1,1.4577937E-1,-5.501888E-1,-3.580192E-1,-2.1365705E-1,6.496738E-1,1.5831256E-1,-1.2675734E-1,2.0637424E-1,-1.924093E-1,5.7703134E-2,-1.0706376E-1,-7.9971844E-1,-9.868483E-2,-2.942182E-1,1.15220115E-1,1.1054568E0,4.4945118E-1,2.5202197E-1,2.2102143E-3,1.1739284E-1,1.5183E-1,-3.3302788E-2,-1.8196157E-1,3.7239205E-2,5.806183E-3,-1.4611454E-1,1.144636E-1,4.902131E-4],"split_indices":[2,2,2,2,1,0,0,2,1,1,0,0,0,0,1,0,1,2,0,1,0,0,2,0,0,0,2,0,2,0,1,0,0,0,0,0,0,0,0,0,0,0,0],"split_type":[0,0,0,0,0,0,0,0,0,0,0,0,0,0,0,0,0,0,0,0,0,0,0,0,0,0,0,0,0,0,0,0,0,0,0,0,0,0,0,0,0,0,0],"sum_hessian":[4.337742E1,1.9558779E1,2.3818642E1,1.1279821E1,8.278957E0,1.0647967E0,2.2753845E1,4.6275992E0,6.6522217E0,7.075533E0,1.2034247E0,7.4811964E0,1.5272648E1,2.1022887E0,2.5253105E0,1.7660781E0,4.8861437E0,5.2658153E0,1.8097178E0,5.217969E0,2.2632275E0,1.9383048E0,1.3334343E1,1.4998077E0,1.0255028E0,1.842046E0,3.0440974E0,1.9004322E0,3.365383E0,1.2364239E0,3.981545E0,2.6808548E0,1.0653489E1,1.2618357E0,1.7822617E0,1.0952723E0,2.2701106E0,1.7066815E0,2.2748635E0,1.2124634E0,1.4683913E0,3.1131732E0,7.5403156E0],"tree_param":{"num_deleted":"0","num_feature":"3","num_nodes":"43","size_leaf_vector":"1"}},{"base_weights":[2.9197172E-3,1.448849E-1,-2.427277E-2,-5.8911216E-2,2.702775E-1,-1.5576667E-1,1.4237926E-2,8.992194E-2,1.4595784E-1,5.083438E-2,-3.025251E-1,3.0039197E-1,-8.864855E-2,-1.0378549E-2,2.2018965E-1,-1.8605292E-1,2.3655547E-2,2.5527997E-2,1.1234078E-1,-2.2176725E-1,4.216839E-2,4.7173705E-2,-1.3599442E-1,8.023663E-2,-8.213502E-3],"categories":[],"categories_nodes":[],"categories_segments":[],"categories_sizes":[],"default_left":[0,0,0,0,0,0,0,0,0,0,0,0,0,0,0,0,0,0,0,0,0,0,0,0,0],"id":40,"left_children":[1,3,5,-1,7,-1,9,11,-1,13,15,17,-1,19,-1,-1,-1,-1,-1,21,23,-1,-1,-1,-1],"loss_changes":[1.689573E-1,3.5400978E-1,7.0927525E-1,0E0,1.7324606E-1,0E0,4.2271593E-1,4.3436E-1,0E0,1.3605996E0,5.071973E-1,1.9992143E-2,0E0,3.5014534E-1,0E0,0E0,0E0,0E0,0E0,6.213536E-1,4.0548575E-1,0E0,0E0,0E0,0E0],"parents":[2147483647,0,0,1,1,2,2,4,4,6,6,7,7,9,9,10,10,11,11,13,13,19,19,20,20],"right_children":[2,4,6,-1,8,-1,10,12,-1,14,16,18,-1,20,-1,-1,-1,-1,-1,22,24,-1,-1,-1,-1],"split_conditions":[-7.733362E-1,-1.5121036E0,-6.841746E-1,-5.8911216E-2,1.1027112E0,-1.5576667E-1,1.275689E0,6.496738E-1,1.4595784E-1,9.928839E-1,1.0946804E0,8.680921E-2,-8.864855E-2,-2.0227748E-1,2.2018965E-1,-1.8605292E-1,2.3655547E-2,2.5527997E-2,1.1234078E-1,-5.5432993E-1,1.4375435E-1,4.7173705E-2,-1.3599442E-1,8.023663E-2,-8.213502E-3],"split_indices":[0,0,0,0,1,0,1,1,0,1,2,1,0,0,0,0,0,0,0,2,0,0,0,0,0],"split_type":[0,0,0,0,0,0,0,0,0,0,0,0,0,0,0,0,0,0,0,0,0,0,0,0,0],"sum_hessian":[4.1855953E1,6.0326858E0,3.582327E1,1.4689354E0,4.5637503E0,1.684976E0,3.413829E1,3.260367E0,1.3033835E0,3.1355257E1,2.7830348E0,2.251477E0,1.0088899E0,2.96805E1,1.6747558E0,1.1767561E0,1.6062785E0,1.1264027E0,1.1250743E0,5.2679477E0,2.4412552E1,2.1194983E0,3.1484494E0,5.0872893E0,1.9325264E1],"tree_param":{"num_deleted":"0","num_feature":"3","num_nodes":"25","size_leaf_vector":"1"}},{"base_weights":[2.1443837E-3,1.6764013E-2,